tree
version=v4
num_class=1
num_tree_per_iteration=1
label_index=0
max_feature_idx=28
objective=binary sigmoid:1
feature_names=weekday amount_index_000001_shift_5 amount_index_000001_shift_3 pre_close_index_000001_shift_1 pre_close_shift_4 open_transform amount_shift_5 pre_close_shift_2 vol pre_close_index_000001_shift_2 pre_close_index_000001_shift_4 high_transform amount_shift_1 amount_shift_3 pre_close_index_000001_shift_5 pre_close_transform pre_close_shift_1 turnover_rate pre_close_shift_3 amount_index_000001_shift_4 amount_index_000001_shift_1 month pre_close_index_000001_shift_3 low_transform amount_shift_2 pre_close_shift_5 U-D amount_index_000001_shift_2 amount_shift_4
feature_infos=[0:4] [-0.59014495799655686:3.9647131482637517] [-0.56019399756835331:1.8789828382882523] [-0.077245367757333303:0.080636921063662409] [-0.75:9.1188166828322004] [-0.97413114385333477:0.56816622561991581] [-1:inf] [-0.5535714285714286:5.6430469441984066] [-1:9.0000000000000018] [-0.10263778140941739:0.13028106039244453] [-0.11279264367994303:0.20490564928971414] [-0.91901923293217858:0.70600858369098707] [-0.95158774721618333:inf] [-0.98052392376106667:inf] [-0.10693888300907654:0.21886906459392008] [-0.72830188679245278:0.5466039400176419] [-0.32591682419659734:17.424812030075188] [0:1965.035112] [-0.75:4.3101694915254241] [-0.53558881910514211:1.923396214612247] [-0.31161432212663892:1.4297587044111035] [-1:0] [0:0] [-0.98537847261275435:0.45839458982652176] [-0.98320980357567489:inf] [-0.75:3.7329931972789114] [-2451:1722] [-0.47454973050001403:2.1428917551892561] [-0.97732190206054437:inf]
tree_sizes=3539 3609 3617 3640 3616 3639 3627 3656 3662 3630 3622 3664 3646 3669 3630 3621 3642 3667 3626 3669 3650 3689 3687 3651 3674 3651 3652 3663 3668 3680 3660 3646 3649 3676 3680 3671 3652 3663 3654 3683 3661 3652 3687 3652 3699 3675 3706 3670 3653 3638 3693 3667 3666 3643 3676 3664 3673 3685 3671 3668 3676 3667 3680 3643 3678 3678 3657 3655 3698 3654 3670 3691 3664 3669 3663 3702 3676 3682 3666 3666 3664 3680 3609 3709 3673 3658 3670 3669 3683 3658 3669 3669 3678 3621 3693 3697 3668 3644 3651 3665 3666 3724 3646 3648 3638 3675 3693 3670 3652 3658 3676 3691 3673 3651 3711 3660 3664 3716 3702 3664 3630 3655 3662 3672 3675 3655 3649 3683 3657 3695 3642 3656 3663 3667 3686 3718 3692 3681 3719 3680 3670 3671 3647 3679 3681 3681 3661 3665 3653 3683 3686 3701 3654 3688 3658 3692 3681 3661 3672 3684 3677 3673 3687 3656 3660 3722 3702 3664 3684 3685 3735 3707 3652 3681 3709 3661 3684 3673 3719 3667 3664 3661 3673 3737 3699 3680 3675 3665 3703 3692 3688 3678 3665 3719 3632 3661 3650 3678 3706 3716 3662 3693 3652 3661 3745 3653 3673 3667 3699 3682 3685 3686 3673 3726 3648 3684 3660 3653 3664 3722 3634 3696 3672 3666 3699 3678 3684 3648 3709 3673 3694 3745 3710 3665 3626 3695 3685 3647 3695 3685 3622 3662 3653 3669 3667 3600 3683 3638 3690 3683 3710 3679 3678 3714 3658 3668 3684 3676 3702 3688 3693 3638 3698 3653 3667 3675 3680 3693 3646 3721 3696 3647 3649 3651 3696 3643 3651 3703 3659 3659 3671 3632 3675 3683 3691 3688 3659 3674 3700 3657 3693 3635 3621 3703 3688 3700 3739 3692 3713 3667 3700 3685 3672 3657 3699 3693 3600 3663 3678 3717 3671 3741 3661 3626 3693 3723 3675 3693 3644 3661 3625 3673 3688 3723 3663 3705 3670 3702 3685 3713 3664 3736 3687 3704 3703 3623 3678 3679 3659 3630 3663 3683 3696 3661 3713 3721 3642 3740 3686 3706 3653 3768 3679 3664 3682 3660 3696 3670 3666 3687 3700 3697 3638 3647 3668 3708 3653 3730 3664 3658 3653 3680 3661 3667 3690 3691 3738 3646 3669 3655 3677 3681 3690 3637 3677 3686 3653 3612 3707 3675 3641 3699 3667 3675 3664 3672 3710 3648 3665 3668 3689 3692 3655 3687 3712 3674 3654 3709 3641 3676 3681 3657 3701 3650 3711 3676 3661 3701 3643 3683 3639 3691 3609 3680 3665 3673 3682 3682 3683 3673 3644 3686 3713 3657 3647 3671 3653 3700 3666 3690 3706 3620 3619 3708 3693 3678 3579 3720 3654 3694 3672 3646 3711 3660 3634 3688 3641 3712 3657 3654 3616 3676 3684 3674 3675 3666 3638 3704 3664 3645 3693 3621 3690 3699 3647 3661 3657 3709 3693 3677 3658 3665 3603 3631 3637 3630 3699 3689 3665 3660 3665 3706 3673 3608 3696 3635 3641 3643 3624 3612 3674 3668 3650 3672 3667 3638 3670 3676 3664 3695 3669 3690 3633 3660 3650 3685 3673 3678 3689 3687 3637 3677 3648 3704 3672 3704 3643 3617 3679 3669 3697 3673 3626 3631 3697 3643 3643 3634 3645 3668 3620 3642 3623 3695 3691 3689 3700 3669 3689 3646 3669 3690 3658 3653 3669 3689 3665 3667 3689 3677 3656 3698 3653 3670 3658 3660 3638 3620 3660 3678 3684 3663 3660 3641 3639 3682 3683 3700 3661 3696 3651 3674 3688 3626 3677 3684 3674 3638 3661 3655 3666 3625 3678 3682 3628 3670 3665 3673 3640 3681 3654 3665 3666 3688 3655 3635 3647 3672 3685 3701 3649 3693 3649 3674 3675 3644 3705 3660 3701 3628 3689 3638 3688 3653 3701 3655 3680 3685 3641 3648 3644 3668 3683 3672 3661 3580 3634 3624 3647 3654 3703 3628 3643 3672 3670 3679 3629 3644 3654 3669 3630 3664 3630 3651 3640 3677 3662 3651 3639 3655 3616 3646 3633 3685 3677 3637 3684 3661 3648 3672 3667 3664 3737 3631 3686 3701 3589 3666 3663 3692 3640 3633 3610 3711 3582 3672 3686 3640 3664 3644 3628 3622 3695 3656 3572 3650 3662 3577 3680 3709 3705 3649 3629 3639 3644 3614 3641 3624 3679 3633 3644 3670 3672 3664 3659 3678 3660 3621 3663 3679 3712 3532 3622 3668 3575 3623 3634 3562 3679 3621 3609 3600 3659 3675 3633 3553 3674 3607 3644 3697 3607 3648 3609 3688 3674 3624 3639 3686 3605 3677 3621 3601 3687 3612 3576 3670 3574 3624 3651 3603 3670 3640 3631 3678 3658 3680 3637 3670 3662 3602 3623 3620 3656 3656 3610 3616 3574 3606 3661 3722 3633 3618 3572 3651 3602 3662 3710 3615 3676 3664 3659 3626 3596 3620 3673 3676 3679 3652 3656 3650 3674 3629 3660 3690 3638 3594 3617 3659 3619 3676 3576 3639 3630 3545 3643 3623 3665 3633 3590 3626 3555 3666 3636 3692 3635 3655 3696 3715 3656 3664 3671 3659 3679 3677 3685 3657 3637 3627 3524 3661 3646 3655 3609 3609 3673 3685 3653 3665 3613 3655 3656 3605 3587 3535 3645 3619 3631 3678 3622 3661 3523 3623 3636 3602 3652 3631 3687 3615 3658 3657 3656 3640 3643 3674 3667 3634 3653 3608 3677 3693 3693 3645 3630 3664 3664 3692 3652 3674 3676 3684 3669 3671 3680 3654 3659 3674 3607 3668 3623 3697 3680 3578 3678 3673 3637 3636 3597 3626 3585 3696 3645 3632 3626 3642 3660 3654 3579 3644 3672 3558 3680 3560 3664 3641 3545 3626 3666 3654 3649 3571 3682 3583 3697 3617 3660 3672 3662 3611 3682 3656 3632 3697 3683 3659 3646 3602 3648 3574 3646 3644 3689 3604 3697 3662 3683 3670 3621 3639 3639 3658 3701 3617 3600 3671 3595 3640 3654 3591 3626 3655 3592 3576 3594 3666 3655 3666 3564 3626 3582 3650 3686 3663 3628 3627 3650 3597 3664 3642 3643 3653 3658 3653 3597 3614 3658 3599 3706 3631 3568 3656

Tree=0
num_leaves=31
num_cat=0
split_feature=17 14 1 17 1 11 23 14 26 26 17 26 26 2 20 17 1 1 2 19 8 11 26 9 19 21 26 3 19 26
split_gain=93723.5 23030.1 19477.7 16837.1 15267.9 11449.5 13231 10277 10111 11697.1 8858.68 8210.59 8491.42 6361.97 7528.59 5945.27 5936.95 5359.16 3914.05 4299.19 3859.05 3694.21 3536.81 3445.67 5611.55 4099.33 3482.77 3313.87 3094 9438.92
threshold=1.3119085000000001 -0.058109705944758262 0.55394660141943908 0.30263750000000006 -0.39801219452508269 0.031775043959493522 -0.044049493698655136 0.063821164822042004 571.50000000000011 120.50000000000001 2.3420500000000004 -3.4999999999999996 74.500000000000014 -0.11396440996985509 0.25279892216665195 1.0000000180025095e-35 0.80469560298153919 -0.39801219452508269 0.070287424670084683 0.2051997932792953 -0.21907171070018722 0.038668494171097238 -386.99999999999994 0.020199823663123225 0.90923449356948716 -1.0000000180025095e-35 55.500000000000007 -0.0059521243890218092 0.46835208988619081 -33.499999999999993
decision_type=10 8 10 10 8 10 10 10 10 10 10 10 10 10 10 10 10 8 10 10 8 10 10 10 10 10 10 10 10 10
left_child=3 11 4 15 -3 6 -5 10 9 18 21 -2 -13 -9 -15 -1 -7 -8 -4 -20 -19 -6 -12 24 27 -25 -27 -21 -24 -30
right_child=1 2 8 5 7 16 17 13 -10 -11 22 12 -14 14 -16 -17 -18 20 19 23 -22 -23 28 25 -26 26 -28 -29 29 -31
leaf_value=-1.1160032471335612 -0.88908783777269595 -0.90132425836712238 -1.0488477830558358 -1.0387993523919088 -1.0448237830131384 -1.0386046553668107 -0.95939044006733087 -0.88089776761700167 -1.1194653358723459 -0.86594785582675093 -0.91277711735338896 -1.029350948818776 -0.88879028169962915 -1.069064367198582 -0.89257054807857661 -1.0759507725187218 -0.93019490643263381 -1.0567796223421817 -0.87939221087215791 -0.91910949971090616 -1.068557098327175 -1.0290807464262151 -1.0298960896591438 -1.0416321574904099 -0.81744735445910655 -0.86845660541850767 -0.96737195290296829 -1.0367922540240371 -0.87654832146029737 -1.0219471925090875
leaf_weight=15941.932535514235 4944.0085166394711 3166.53900629282 3056.5308672934771 94110.710632145405 260571.13485945761 92797.741337433457 1767.4512560069561 2438.8669555038214 1722.9470876902342 3398.3074672669172 941.71590793132782 5341.2708329558372 2178.1996839344501 2406.8856051117182 1362.6752489358187 81802.321882143617 1854.9183227419853 161456.30618463457 1537.0314061939716 981.5962665528059 263799.13200294971 67575.43742609024 497619.79384678602 1473.2613641470671 511.70160627365112 2104.9893637597561 3275.3911928683519 7035.7044275254011 1902.5050308555365 10359.452963456511
leaf_count=82747 25662 16436 15865 488484 1352501 481669 9174 12659 8943 17639 4888 27724 11306 12493 7073 424597 9628 838043 7978 5095 1369256 350752 2582908 7647 2656 10926 17001 36519 9875 53771
internal_value=-1.04317 -1.03013 -1.03129 -1.05935 -1.03283 -1.05568 -1.05916 -1.03332 -0.979194 -0.968855 -1.03389 -0.949146 -0.988634 -0.956408 -1.00526 -1.08248 -1.03648 -1.06365 -0.986361 -0.975073 -1.06409 -1.04158 -1.02895 -0.984633 -1.01009 -0.952955 -0.928673 -1.02238 -1.02916 -0.999388
internal_weight=1.59944e+06 885906 873442 713531 848345 615786 521134 845178 25097.5 23374.5 838970 12463.5 7519.47 6208.43 3769.56 97744.3 94652.7 427023 19976.2 16919.7 425255 328147 510823 15382.6 8529 6853.64 5380.38 8017.3 509882 12262
internal_count=8301915 4598317 4533625 3703598 4403356 3196254 2704957 4386920 130269 121326 4354695 64692 39030 32225 19566 507344 491297 2216473 103687 87822 2207299 1703253 2651442 79844 44270 35574 27927 41614 2646554 63646
is_linear=0
shrinkage=1


Tree=1
num_leaves=31
num_cat=0
split_feature=17 14 1 17 1 11 23 26 26 14 17 26 26 17 2 1 1 11 23 26 11 9 2 19 23 3 26 2 9 19
split_gain=82961.9 19361.9 16573.2 15253.1 12574.5 10147.9 11262.7 8691.28 8992.09 8607.87 7953.88 6329.11 6833.95 5659.43 5094.42 4739.51 4299.48 3692.72 4910.4 3960.17 3430.96 3370.44 3273.69 3344.36 3027.3 5288.59 2884.26 2865.82 2820.87 4402.49
threshold=1.2991315000000003 -0.058109705944758262 0.55394660141943908 0.30263750000000006 -0.39801219452508269 0.035864077254706597 -0.045266763474161809 571.50000000000011 120.50000000000001 0.063821164822042004 2.4279255000000006 -3.4999999999999996 74.500000000000014 1.0000000180025095e-35 -0.055483138676550241 -0.39801219452508269 0.80469560298153919 0.017518833986912032 -0.013806323661403006 26.500000000000004 0.037567632252017709 0.030232710388841195 0.070287424670084683 0.2051997932792953 -0.18036802316446823 0.012186494312936178 -82.499999999999986 0.16599446589495356 0.020199823663123225 0.90923449356948716
decision_type=10 8 10 10 8 10 10 10 10 10 10 10 10 10 10 8 10 10 10 10 10 10 10 10 8 10 10 10 10 10
left_child=3 11 4 13 -3 6 26 8 22 10 20 -2 -13 -1 21 -8 -7 18 19 -17 -6 -11 -4 -24 25 -12 -5 -16 29 -25
right_child=1 2 7 5 9 16 15 -9 -10 14 24 12 -14 -15 27 17 -18 -19 -20 -21 -22 -23 23 28 -26 -27 -28 -29 -30 -31
leaf_value=-0.071049129730437616 0.13491246431398976 0.12475211252881233 -0.0053657823090925514 0.058845197908453328 -0.0014322002696299557 0.0063897034229641811 0.07564825898213634 -0.074567671022849266 0.15353412234767888 0.14288673621624379 0.014616591262821863 0.012835551652219225 0.13538018815831329 -0.031327938409314068 -0.032557387027303694 -0.023576212070602565 0.10002986163118351 -0.0099002941707101322 -0.032690321022491635 -0.0068542865489649068 0.01289344512830249 -0.0046213959362928943 0.14287973043109875 0.019186286865663378 0.013082582589632023 0.16580191945607295 0.0025669083320260262 0.11248153092359685 0.08127152283288315 0.19194255952337658
leaf_weight=15379.86732198298 5323.9880323410034 3398.8445212393999 3063.5467424988747 3410.8148776590824 275449.20370271802 73719.400316029787 1905.709909632802 1660.5023694634438 3692.7804919481277 3414.4703404009342 2361.7112556993961 5407.5487057417631 2350.3246380984783 80511.350527390838 1722.1381482928991 132670.6186312139 1808.5071089118719 114372.2074893862 110855.71499480307 82808.170519724488 77012.123724088073 666.4956292361021 1660.3859373778105 8144.7086505144835 492443.28263944387 1286.8035547584295 84412.023371234536 685.71778292953968 7165.3546103686094 568.08799602091312
leaf_count=82747 25798 16553 15944 17667 1430501 381809 9532 8949 17721 16508 12165 27885 11388 424597 9051 695180 8915 598829 581365 433844 397198 3503 8013 41869 2539110 6350 437229 3327 35693 2675
internal_value=-1.0675e-05 0.0120739 0.0110021 -0.0154636 0.00957391 -0.0119449 -0.0148748 0.0582381 0.0673151 0.00911607 0.00858963 0.0845345 0.0499617 -0.0376988 0.0779594 -0.0187693 0.00863191 -0.0191776 -0.022429 -0.01715 0.00169793 0.118796 0.0518609 0.061857 0.013486 0.0679385 0.00475261 0.00874731 0.0533844 0.0304503
internal_weight=1.59933e+06 897478 884396 701854 858441 605963 530435 25955.4 24294.9 855042 848553 13081.9 7757.87 95891.2 6488.82 442612 75527.9 440707 326335 215479 352461 4080.97 20602.1 17538.5 496092 3648.51 87822.8 2407.86 15878.2 8712.8
internal_count=8301915 4630201 4565130 3671714 4434266 3164370 2773646 130864 121915 4417713 4385324 65071 39273 507344 32389 2318750 390724 2309218 1710389 1129024 1827699 20011 104194 88250 2557625 18515 454896 12378 80237 44544
is_linear=0
shrinkage=0.06


Tree=2
num_leaves=31
num_cat=0
split_feature=17 14 1 17 1 17 11 23 26 26 26 26 14 11 1 8 2 1 26 9 26 9 2 20 2 19 11 23 23 26
split_gain=73801.3 17630.7 15323 12966.2 11207.5 9518.31 9306.93 12789.5 7592.38 7656.04 5514.34 6069.48 5033.75 4106.37 3944.89 3561.77 3285.42 2990.84 8278.52 5391.15 3317.57 4704.1 3340.9 3126.36 2983.69 2992.84 2947.4 3448.39 3102.4 2927.89
threshold=1.1623070000000004 -0.058109705944758262 0.55394660141943908 0.096350000000000005 -0.39801219452508269 2.2359500000000003 0.028178854215184016 -0.036750448022186931 571.50000000000011 120.50000000000001 -3.4999999999999996 74.500000000000014 0.063821164822042004 0.035864077254706597 0.80469560298153919 -0.24272989188478525 -0.055483138676550241 0.12372282883063637 -30.499999999999996 0.0022090216311276109 77.500000000000014 0.026966041275158486 0.16849757222472408 0.070123108979774487 0.070287424670084683 0.2051997932792953 0.01116427432216914 -0.0052284451723253328 -0.01350314664586548 43.500000000000007
decision_type=10 8 10 10 8 10 10 10 10 10 10 10 10 10 10 8 10 10 10 10 10 10 10 10 10 10 10 10 10 10
left_child=3 10 4 -1 -3 13 7 -5 9 24 -2 -12 17 29 -8 -9 -14 -7 19 23 -20 -22 -23 -19 -4 -26 28 -28 -17 -6
right_child=1 2 8 6 5 12 14 15 -10 -11 11 -13 16 -15 -16 26 -18 18 20 -21 21 22 -24 -25 25 -27 27 -29 -30 -31
leaf_value=-0.062745908782579726 0.12083061453581805 0.11054228543947915 -0.0063524739220372876 -0.00065508295525077646 -0.0065506464550001741 0.0093742753119608526 0.00054778330788126197 -0.0153245851863795 -0.073063756275750652 0.13649992447062856 0.011660460844529085 0.12157566680910258 0.11407478965342253 0.012026991016694738 0.090757175543055221 -0.026527981474439664 0.010402188142828239 0.11865386217551965 0.011504314868544217 0.15571740888092492 0.025107911491554429 0.16844820221008577 0.05101272403409355 0.012850801753578403 0.1292422313707815 0.048367997245767479 -0.0048808177462928825 -0.027892166808416181 -0.04486646210256881 0.0071253449474194437
leaf_weight=20694.544291570783 5896.1094152331352 3824.6426163613796 3215.8320623487234 119844.64118158817 218690.18716520071 389998.26754166186 99777.050571680069 137074.20284862816 1614.3091638833284 4082.6058035045862 5903.1645209491253 2607.4339474588633 2897.5681565999985 83791.155105620623 1776.2220101803541 97744.943070650101 1774.2720279693604 1449.7366914153099 114049.7672572583 2397.8920176923275 26642.899374216795 1450.6939958631992 2186.6115044653416 3280.455935716629 1822.9221304357052 17095.870210751891 36990.280583947897 64018.859697401524 50300.903576269746 75920.341364294291
leaf_count=114201 27251 17804 16770 624928 1139248 2000409 518730 724781 9030 18550 30287 12050 13609 429802 8504 518526 9096 7086 584822 11550 136570 7344 11207 16741 8372 84600 196186 339735 268680 395446
internal_value=-1.85685e-05 0.0103525 0.00935986 -0.0160417 0.00804474 0.00762073 -0.0144507 -0.0177778 0.0532271 0.0610033 0.0762329 0.0453357 0.0126883 0.000306954 0.00212559 -0.0230922 0.074702 0.0121532 0.0193089 0.0824298 0.0161915 0.0338459 0.0978504 0.0452779 0.0470784 0.0561606 -0.0273673 -0.0194652 -0.0327588 -0.00302638
internal_weight=1.59881e+06 970593 956186 628222 928354 924530 607527 505974 27831.5 26217.2 14406.7 8510.6 546128 378402 101553 386129 4671.84 541456 151458 7128.08 144330 30280.2 3637.31 4730.19 22134.6 18918.8 249055 101009 148046 294611
internal_count=8301915 4987644 4918056 3314271 4780734 4762930 3200070 2672836 137322 128292 69588 42337 2798434 1964496 527234 2047908 22705 2775729 775320 35377 739943 155121 18551 23827 109742 92972 1323127 535921 787206 1534694
is_linear=0
shrinkage=0.06


Tree=3
num_leaves=31
num_cat=0
split_feature=17 1 1 17 15 14 11 23 11 0 1 21 23 26 19 14 26 10 1 20 20 8 23 19 26 19 14 11 23 14
split_gain=65452.1 15333.3 12289.6 12012 9669.74 8695.42 8262.92 11904.6 8130.19 5407.06 5808.85 10633.1 4941.09 4070 3874.05 3801.17 3560.44 3547.57 3462.08 3381.85 3715.09 3107.84 2901.39 2882.87 2710.79 2681.66 2612.58 2585.06 3306.94 2400.09
threshold=1.1508460000000003 0.37142520908882448 -0.39801219452508269 0.096350000000000005 -0.085031428134559009 -0.058109705944758262 0.026077464904096594 -0.033135684628305163 0.031775043959493522 1.0000000180025095e-35 0.80469560298153919 -1.0000000180025095e-35 -0.020637981010203688 101.50000000000001 0.031180809908901479 0.05361060268110842 -386.99999999999994 0.019705783112476779 0.80469560298153919 -0.16603765711669008 0.25279892216665195 -0.24272989188478525 -0.10621470582482895 0.2051997932792953 42.500000000000007 0.59892798306116135 0.024283123683934957 0.0096815171855898999 -0.0058310431387106889 -0.020702317533351808
decision_type=10 10 8 10 8 8 10 10 10 10 10 10 10 10 10 10 10 10 10 10 10 8 10 10 10 10 10 10 10 8
left_child=3 2 -2 -1 -3 14 7 22 12 17 23 -12 13 16 -4 -10 -7 26 -8 -17 -21 -9 -5 -11 -14 -13 -6 -23 -29 -18
right_child=1 4 5 6 9 8 18 21 15 10 11 25 24 -15 -16 19 29 -19 -20 20 -22 27 -24 -25 -26 -27 -28 28 -30 -31
leaf_value=-0.061060421758323963 0.10252148835428605 0.12933980729661765 0.011916749737460458 0.049529934076368624 0.016520610312402678 0.094310149821189862 -0.00049403747835548458 -0.015518515897484089 0.012603521571891001 0.072888463127080957 -0.013560175891470667 0.015105008088420155 -0.01209551948395962 0.042503940942305619 0.08245802930871074 0.11613689747661053 0.014249410704243088 -0.025211229733932587 0.082296795061079828 0.0012889753879166107 0.11013348861148016 -0.033242443271419175 -0.0038695494858721276 0.024839386643066546 0.0031426803543425433 0.13809184787250658 0.11409269046854174 -0.0062977964416595401 -0.028811418694105907 0.0018877043108325678
leaf_weight=20010.88846988976 4878.7680903971195 3849.4496418386698 4355.1663012653589 3764.2725199609995 7156.8186004012823 1589.2138531953096 110374.11086043715 122710.43844942749 336336.72308725119 5196.1883981823921 2843.3549904674292 714.59250164031982 111642.9909863174 10552.27068939805 7862.7267622053623 2280.0288046449423 70282.701921254396 8463.7015265375376 1848.7988308817148 4289.5936285555363 1532.1209786832333 122720.52298675478 136120.25105641782 33325.884449228644 67399.086780816317 5974.0039345175028 1146.1277357935905 37950.571147248149 61630.738051429391 289214.74338258803
leaf_count=114201 21823 17504 22225 19367 36360 7736 575325 653995 1716760 24558 14964 3389 579843 53909 35998 11057 362513 43423 8581 21824 7000 663451 713174 168056 347733 26898 5184 202406 332103 1490555
internal_value=-2.50312e-05 0.00960664 0.00754841 -0.0153339 0.0369483 0.00703773 -0.0138015 -0.017197 0.0063515 0.0314615 0.0416976 0.0836344 0.00182913 0.00577397 0.057313 0.0135818 0.00470058 0.00212442 0.000869887 0.0541936 0.029934 -0.0231832 -0.00243258 0.0313207 -0.00635921 0.124952 0.0299893 -0.0274141 -0.0202314 0.00430445
internal_weight=1.59802e+06 980886 912216 617131 68670.1 907337 597120 484897 895119 64820.7 48054 9531.95 550681 371639 12217.9 344438 361087 16766.6 112223 8101.74 5821.71 345012 139885 38522.1 179042 6688.6 8302.95 222302 99581.3 359497
internal_count=8301915 5019312 4678976 3282603 340336 4657153 3168402 2584496 4598930 322832 237865 45251 2842289 1914713 58223 1756641 1860804 84967 583906 39881 28824 1851955 732541 192614 927576 30287 41544 1197960 534509 1853068
is_linear=0
shrinkage=0.06


Tree=4
num_leaves=31
num_cat=0
split_feature=17 17 1 1 11 23 15 14 19 17 11 26 1 26 1 26 14 26 14 1 14 19 26 9 10 20 20 11 23 26
split_gain=58573.7 13685.7 11999 9069.11 8041.19 8332.71 7512.89 6663.46 5863.83 5863.77 5632.26 4984.16 5169.46 4456.3 6635.26 4931.92 3678.59 3180.69 3080.52 3009.79 2977.23 3279.37 2863.34 2789.17 2607.42 2584.18 3219.14 2554.82 3389.83 2289.92
threshold=1.4343245000000002 0.37932150000000003 0.37142520908882448 -0.39801219452508269 0.040552392421397118 -0.050632911392404993 -0.085031428134559009 -0.03051174050233043 0.0047318574063767828 1.0000000180025095e-35 0.030420554792011788 43.500000000000007 -0.39801219452508269 571.50000000000011 0.80469560298153919 95.500000000000014 0.04672707615890815 -386.99999999999994 0.05361060268110842 0.52188171349188683 -0.058109705944758262 0.031180809908901479 43.500000000000007 -0.01369633374341455 0.036998433448607683 -0.16603765711669008 0.25279892216665195 0.01428892251754872 -0.018673985848707161 74.500000000000014
decision_type=10 10 10 8 10 10 8 8 10 10 10 10 10 10 10 10 10 10 10 10 8 10 8 10 10 10 10 10 10 10
left_child=1 9 3 -2 5 20 -4 8 -5 -1 17 16 -13 14 23 -16 27 -9 -12 -6 21 -3 -19 -8 -18 -20 -27 28 -7 -10
right_child=2 4 6 7 19 11 13 10 29 -11 18 12 -14 -15 15 -17 24 22 25 -21 -22 -23 -24 -25 -26 26 -28 -29 -30 -31
leaf_value=-0.066611538897265843 0.095033133578942691 -0.0052221626638495203 0.11738506544869449 0.015066051919051689 0.0075829297436599335 -0.015929577878277645 0.069919588336582572 0.12420506688274462 0.047363016890606874 -0.025370023004191482 0.011852707295641194 0.1072335965106343 -0.004074292426241354 -0.071152892334295642 0.046340129163847353 0.13372138303082398 -0.031718467415798521 -0.0012099286088220922 0.10758338310522292 0.057171590950356073 0.0044011153667610787 0.092010262625905531 0.0099865659525503782 0.019256520510187003 0.11259531293791623 0.0013490643668680959 0.10610931033532522 -0.010514955098949001 -0.030781733991537049 0.10379381691077617
leaf_weight=13839.72982186079 4362.1858443170786 2133.654585853219 3844.1666508316994 35416.502729967237 62801.896050870419 155699.4855595082 4309.7014295458794 767.046879529953 13754.063685446978 120232.01639014482 311843.33033554256 1523.6637629270554 106089.29787458479 1504.004460260272 6523.9541988223791 3613.1417190134525 681.61282175779343 295048.2742780447 2080.6550925076008 4738.7816049009562 70388.778109684587 3010.8717327266932 113995.65571530163 42387.258659243584 1330.4744067639112 4006.1792388707399 1433.9233137816191 120648.2847058773 85813.179057210684 3188.9677910208702
leaf_count=82747 18840 10963 16766 180593 322546 830781 20242 3486 66633 654025 1582376 7292 564887 8867 31022 15172 3612 1520099 9607 22782 364039 14852 583185 211335 6979 20356 6282 640325 466506 14718
internal_value=-3.01781e-05 -0.0122579 0.010768 0.00876052 -0.00847048 -0.0108809 0.0361401 0.00827899 0.028954 -0.0296272 0.00679439 -0.0138431 -0.00249831 0.0307865 0.0334841 0.0774852 -0.0171955 0.0021393 0.0127678 0.0110622 0.00762151 0.0516838 0.0019104 0.0239323 0.0637077 0.0507131 0.0289622 -0.017645 -0.0212068 0.0579843
internal_weight=1.59701e+06 748932 848079 785897 614860 547319 62182.2 781535 52359.5 134072 729175 471786 107613 58338.1 56834.1 10137.1 364173 409811 319364 67540.7 75533.3 5144.53 409044 46697 2012.09 7520.76 5440.1 362161 241513 16943
internal_count=8301915 3992336 4309579 4006175 3255564 2910236 303404 3987335 261944 736772 3725391 2520382 572179 286638 277771 46194 1948203 2106770 1618621 345328 389854 25815 2103284 231577 10591 36245 26638 1937612 1297287 81351
is_linear=0
shrinkage=0.06


Tree=5
num_leaves=31
num_cat=0
split_feature=17 14 26 17 1 17 9 23 11 26 26 14 19 27 26 26 23 11 19 26 11 3 14 2 14 9 9 20 11 20
split_gain=52016.2 12213.8 10923.3 10070.4 7621.36 7443.05 6927.95 6321.42 8980.75 6240.15 6539.54 5144.89 4922.78 4447.96 4089.82 4333.6 3512.3 3550.82 3411.87 3400.15 3352.37 3228.7 3112.98 4032.8 3312.55 6506.76 4252.21 3207.49 3026.38 2826
threshold=1.0603100000000001 -0.058109705944758262 50.500000000000007 0.096350000000000005 -0.3274029759502069 2.3420500000000004 0.026966041275158486 -0.046499297551039466 0.023472901149120963 571.50000000000011 86.500000000000014 0.031069005279752343 0.46835208988619081 0.44952506074621618 -3.4999999999999996 74.500000000000014 -0.01742762240218074 -0.0015746572939843244 0.19313834425263021 95.500000000000014 0.04590556690825711 0.024045749654523021 0.0010530757121918 -0.25763753065517231 -0.0084007444280582901 -0.0019922316132812029 0.00094858961983353466 -0.079464020235452876 0.0063343008635707489 -0.14514490704827973
decision_type=10 8 10 10 8 10 10 10 10 10 10 8 10 10 10 10 10 10 8 10 10 10 8 8 10 10 10 10 10 10
left_child=3 14 5 -1 -4 20 13 -5 16 10 21 -12 -7 22 -2 -16 17 -9 -15 -20 -3 -8 24 -24 29 -26 -27 -28 -18 -6
right_child=1 2 4 7 6 12 9 8 -10 -11 11 -13 -14 18 15 -17 28 -19 19 -21 -22 -23 23 -25 25 26 27 -29 -30 -31
leaf_value=-0.058031337756808646 0.095994444970989773 -0.0050460114096469218 0.079549656081182266 0.0043256120713578766 0.059070444753266747 0.0079757468389874148 -0.0058347325010677251 -0.01993559865785427 -0.00099888272445812108 -0.070071065767578822 0.054452337081548473 0.13787547959115595 0.046290855719210447 0.10125626645242257 0.0068323486292096993 0.094350727483304461 -0.036946271608198335 -0.0015225603867297403 -0.0034454699052090948 0.070085112019718371 0.011349398595894632 0.07006202204978694 0.092453533948938377 0.0047600466260445456 0.0097174157945402479 0.14949908310764207 0.12455395077759911 0.04050747871122623 -0.020660118416768451 0.0042261468402173532
leaf_weight=18734.976873889565 6622.1192969381809 313272.58955638111 6981.4630311429501 64599.904100075364 3729.6606548726559 381984.95128855109 6037.759044662118 122392.40860787034 114077.6739128232 1487.5729165375233 6559.9600403606892 4478.1507158577442 12465.78698399663 3206.2710143476725 6449.8140884041786 2976.9178793281317 61630.387008875608 54488.796519905329 5076.8477357774973 4086.0421381741762 52406.780738681555 3030.6792101562023 1913.0172865241766 143683.27008296549 17758.636022150517 1790.5172764956951 1879.6881355941296 12540.310067713261 123163.30632868409 36316.288578391075
leaf_count=114201 28298 1636272 32555 334907 18911 1933734 30032 663144 597721 9087 31319 19272 59577 14955 32200 12641 341819 295971 25595 19152 263754 14327 9725 728942 90589 9168 9537 63807 675889 184814
internal_value=-3.42051e-05 0.00792069 0.00710407 -0.0147852 0.0177058 0.00347003 0.0160031 -0.0132858 -0.0156772 0.0485087 0.0572818 0.088297 0.00918662 0.0129773 0.0598565 0.0344702 -0.0203069 -0.0142634 0.047985 0.0293443 -0.00269633 0.01953 0.0110055 0.00591227 0.0210246 0.0348065 0.0622916 0.0514632 -0.0260917 0.00933404
internal_weight=1.59582e+06 1.03674e+06 1.02069e+06 559087 260556 760130 253575 540352 475753 21594.1 20106.5 11038.1 394451 231981 16048.9 9426.73 361675 176881 12369.2 9162.89 365679 9068.44 219611 145596 74015.1 33969.2 16210.5 14420 184794 40045.9
internal_count=8301915 5278263 5205124 3023652 1311787 3893337 1279232 2909451 2574544 104037 94950 50591 1993311 1175195 73139 44841 1976823 959115 59702 44747 1900026 44359 1115493 738667 376826 173101 82512 73344 1017708 203725
is_linear=0
shrinkage=0.06


Tree=6
num_leaves=31
num_cat=0
split_feature=17 17 1 1 11 23 15 17 14 11 19 1 0 26 14 1 26 1 21 19 3 19 19 14 2 20 1 10 8 10
split_gain=46405.2 11653.5 9419.1 6861.87 6484.11 6864.59 5946.6 5638.21 5314.02 4588.64 4351.15 4264.56 3747 3362.09 2787.17 2701.04 2693.58 2686.12 5657.76 2569.23 2593.72 2944.42 3207.52 2561.98 2573.29 2619.89 3065.05 2481.86 2479.82 2451.41
threshold=1.4487345000000003 0.41035000000000005 0.37142520908882448 -0.39801219452508269 0.038128527218479265 -0.054544236251553163 -0.09138395302301934 1.0000000180025095e-35 -0.03051174050233043 0.029062870699881418 0.0047318574063767828 -0.39801219452508269 1.0000000180025095e-35 42.500000000000007 0.04672707615890815 0.52188171349188683 -386.99999999999994 0.74622164781032807 -1.0000000180025095e-35 0.2051997932792953 0.0062561074184340733 0.50388079812995568 0.48515461844137242 0.050020215740657063 -0.11396440996985509 0.25279892216665195 0.34294229607541848 0.038426204361591228 -0.20436789551683973 0.019705783112476779
decision_type=10 10 10 8 10 10 8 10 8 10 10 8 10 10 10 10 10 10 10 10 10 10 10 10 10 10 10 10 8 10
left_child=1 7 3 -2 5 -3 -4 -1 10 16 -5 -7 29 14 28 -6 -10 19 -19 -14 21 22 27 -11 -25 26 -26 -21 -13 -8
right_child=2 4 6 8 15 11 12 -9 9 23 -12 13 17 -15 -16 -17 -18 18 -20 20 -22 -23 -24 24 25 -27 -28 -29 -30 -31
leaf_value=-0.06397889934443067 0.081653156510278366 0.0089468320937591533 0.1067378252122784 0.013675643068944207 0.0060216939178145742 0.070893188360725543 0.025543467534141492 -0.02239515666955014 0.11236537944893449 0.010374607552521762 0.050330030905364538 -0.0095816614417331813 0.069281090747682655 -0.0033728599000980982 0.056506024434843059 0.050698505978666805 0.0014550090661914037 -0.014155605827043049 0.084858231765582784 0.040132377197430485 0.0015651537305670846 -0.013010874144012525 0.19982918380440484 0.096455849497874585 -0.011485558186231532 0.092730070009074669 0.17632613574378111 0.20371200776609713 -0.019985991461215328 -0.02305404573722921
leaf_weight=12849.416049316525 4499.5094130933285 63047.819402128458 3602.5100686401129 35499.912561401725 71550.45472510159 2214.3389573693275 7509.2660200446844 135714.82961663604 789.85957634449005 321297.03836593032 17360.227975979447 136566.80591507256 4548.9689965248108 108798.91969865561 1926.4643483906984 5227.4883051365614 397351.71454788744 2730.7024350166321 8686.1532902568579 10952.334211662412 13434.994396805763 3219.2443587183952 503.95375643670559 2387.0462989360094 4460.1779760271311 1491.7375647574663 336.4147057980299 344.40339408814907 208193.31721624732 7437.9393348395824
leaf_count=82747 18697 323558 15071 179156 365830 10337 36354 753560 3450 1616023 80702 737739 20266 582665 9905 24573 2036495 14429 37686 53756 65636 15832 2481 10706 22689 6275 1545 1718 1133612 38422
internal_value=-3.79863e-05 -0.0109532 0.00956048 0.0077705 -0.00721417 -0.00961413 0.0318881 -0.0259918 0.00734483 0.00601128 0.0257136 -0.0121709 0.0273461 -0.0125747 -0.0154625 0.00906355 0.00167504 0.03609 0.0611759 0.0274121 0.0207187 0.0378511 0.0517264 0.0112433 0.0434177 0.0232844 0.00168684 0.0451194 -0.0158646 0.00136066
internal_weight=1.59453e+06 746090 848444 785474 597526 520748 62970.5 148564 780974 728114 52860.1 457700 59368 455486 346687 76777.9 398142 44420.8 11416.9 33003.9 28454.9 15019.9 11800.7 329972 8675.38 6288.33 4796.59 11296.7 344760 14947.2
internal_count=8301915 4024526 4277389 3975738 3188219 2797816 301651 836307 3957041 3697183 259858 2474258 286580 2463921 1881256 390403 2039945 211804 52115 159689 139423 73787 57955 1657238 41215 30509 24234 55474 1871351 74776
is_linear=0
shrinkage=0.06


Tree=7
num_leaves=31
num_cat=0
split_feature=17 14 10 17 17 26 26 23 11 19 27 1 0 3 1 19 26 26 20 2 23 11 26 1 1 27 9 26 11 26
split_gain=41390.3 9632.2 9073.37 8815.19 7360.65 6720.12 8696.97 5399.21 8374.27 4756.8 5317.91 3998.73 3491.86 3488.55 3480.14 3442.32 3267.44 3491.24 3205.13 5566.15 3152.02 4019.03 3102.87 2581.46 2567.69 2485.65 2194.64 2020.37 1950.66 1866.89
threshold=1.0603100000000001 -0.058109705944758262 0.036998433448607683 0.096350000000000005 2.0892110000000002 184.50000000000003 86.500000000000014 -0.040645546921697494 0.020223064461283882 -0.078636192408164482 0.42009324722778674 0.38249620230939146 2.5000000000000004 0.025518345617872796 -0.39801219452508269 0.52797585833191574 -3.4999999999999996 74.500000000000014 0.0015434143863012743 -0.032214474183959063 -0.011453697337683052 0.0020555236329434213 43.500000000000007 0.80469560298153919 -0.27717306347051457 0.51000642790956674 0.026966041275158486 19.500000000000004 0.0078169232425798364 -70.499999999999986
decision_type=10 8 10 10 10 10 10 10 10 10 10 10 10 10 8 10 10 10 10 10 10 10 10 10 10 10 10 10 10 10
left_child=3 16 4 -1 22 6 9 29 20 -4 12 14 -11 -13 -6 25 -2 -18 19 -14 21 27 -3 -10 -24 -16 -8 -9 -22 -5
right_child=1 2 5 7 11 -7 26 8 23 10 -12 13 18 -15 15 -17 17 -19 -20 -21 28 -23 24 -25 -26 -27 -28 -29 -30 -31
leaf_value=-0.055211696098497527 0.084318975830765169 -0.0045319069080121599 0.070984415873620726 0.043690284627665707 0.075302399527515149 -0.051059819073368415 0.058393163330834191 -0.028685393049687476 -0.0030873984138651261 -0.016848481629382538 0.08047167738675734 0.026006152656843751 0.0097346385084487886 0.12777026117230056 0.0071024633426231909 0.079901816658094912 0.0051852462636862752 0.082833102646730369 -0.0064692497776743232 0.12608012916570463 -0.040070358168468864 -0.0027384289267871195 0.048234607119324778 0.069555892199094055 0.0053646757641260473 0.052116759974694178 0.12181460458827016 -0.014267782987417679 -0.022828799894998038 -0.00012075733275502602
leaf_weight=17527.529284924269 6825.8324036896229 288166.67866802216 6704.8379598110914 3655.4247667789459 2761.3905348628759 3233.8076405823231 3414.7927764207125 67067.24306845665 132868.13314841688 12986.302950561047 3820.9030931144953 30235.187933534384 3550.770551353693 1263.3851985931396 546261.29849144816 2372.0213777720928 6522.3813998401165 3063.8200598955154 5033.3538868278265 2538.7349969595671 34246.938032820821 61229.188016727567 5298.4836022108793 1784.7265679240227 99136.687855631113 4452.11123290658 4624.0513666719198 73158.375543549657 76147.692192688584 83155.464700236917
leaf_count=114201 28298 1505848 32175 18485 11330 18377 15864 374522 705584 64433 16738 144521 17408 5238 2752011 11384 32200 12641 25528 11565 196288 338790 25665 7981 506578 21201 19260 404786 427044 435971
internal_value=-4.03091e-05 0.00699044 0.00626087 -0.0133435 0.00503954 0.0323315 0.0386509 -0.0119674 -0.0146294 0.0256014 0.0147068 0.00929099 0.00428418 0.0300878 0.00811248 0.00777703 0.0525927 0.0300021 0.0289573 0.0582395 -0.0200288 -0.0155634 -0.00132077 -0.00212456 0.00753967 0.00746637 0.094874 -0.0211635 -0.0281775 0.00172403
internal_weight=1.59311e+06 1.04227e+06 1.02585e+06 550841 979947 45907.6 42673.7 533313 446502 34634.9 27930.1 587345 24109.2 31498.6 555847 553085 16412 9586.2 11122.9 6089.51 311849 201455 392602 134653 104435 550713 8038.84 140226 110395 86810.9
internal_count=8301915 5278263 5205124 3023652 4983776 221348 202971 2909451 2454995 167847 135672 2945685 118934 149759 2795926 2784596 73139 44841 54501 28973 1741430 1118098 2038091 713565 532243 2773212 35124 779308 623332 454456
is_linear=0
shrinkage=0.06


Tree=8
num_leaves=31
num_cat=0
split_feature=17 1 17 1 17 15 23 11 14 0 1 21 9 10 2 26 19 8 19 27 14 11 23 14 26 10 9 26 14 20
split_gain=36753.3 8600.11 8135.2 6797.94 5943.27 5377.7 4793.42 7085.97 3652.76 3548.3 3612.44 6057.08 2987.19 2984.64 4878.39 3955.84 3286.36 2897.81 2570.95 2358.52 2162.93 2264.89 2640.45 2159.31 2554.29 2144.47 2088.84 3470.26 2670.2 2245.66
threshold=1.0383925000000003 0.37142520908882448 0.096350000000000005 -0.39801219452508269 1.8367170000000004 -0.079885624446734374 -0.042805921829269948 0.023135877380958045 -0.03051174050233043 1.0000000180025095e-35 0.80469560298153919 -1.0000000180025095e-35 -0.01369633374341455 0.038426204361591228 0.036000767385640557 57.500000000000007 0.52797585833191574 -0.22206064191214309 0.0047318574063767828 -0.18273692200436636 -0.058109705944758262 0.028178854215184016 -0.016795474357517975 0.050020215740657063 36.500000000000007 0.040518755788399842 -0.00012148318997765268 -44.499999999999993 0.0077418080305252379 0.010099435157026248
decision_type=10 10 10 8 10 8 10 10 8 10 10 10 10 10 10 10 10 10 10 10 10 10 10 10 10 10 10 10 10 10
left_child=2 3 -1 -2 20 -3 -4 17 18 12 -11 -12 -7 16 15 19 26 -8 -6 -15 -5 22 -22 -9 -25 -21 28 -28 -10 -29
right_child=1 5 6 4 8 9 7 23 13 10 11 -13 -14 14 -16 -17 -18 -19 -20 25 21 -23 -24 24 -26 -27 27 29 -30 -31
leaf_value=-0.053789433486586873 0.070677577109773265 0.088538949657635327 0.002439248936433156 0.039388476889905627 0.014349446626685398 0.14093874757286887 -0.011652327188364462 -0.0026353079014540177 0.0047662249213728048 0.021928415450485961 -0.013359778815847344 0.089443729851286652 -0.0055030401948860013 0.093841846064074641 -0.0053941270763793962 0.11176483043108407 0.07243842377471682 -0.023062029583049762 0.045188899888973517 0.12635758240812275 -0.0011254895414812146 0.005738531680553027 -0.01454223533718697 0.11550352060931991 0.01370362057444763 -0.021245274836925641 0.079447285749073532 0.0035911098783474112 -0.010400263205217405 0.013564475732257062
leaf_weight=16929.947539761662 5632.2429093271494 4650.8492680639029 75593.621454417706 4481.3980654329062 29172.183512344956 516.4669982790947 136863.19788229465 107109.61824400723 206945.76753330231 41934.528962895274 2836.3167980313301 7569.790390715003 17257.046355769038 1327.14761698246 6394.0667035579681 3581.8501454293728 2670.5695439130068 193337.20126022398 14602.972382470965 408.2067282050848 157967.80069491267 86337.031470879912 79322.685051396489 1170.8806281238794 3663.8376303017139 2685.8149252980947 2491.7283131182194 169657.02876868844 52364.91554440558 156018.52981325984
leaf_count=114201 23126 19286 393814 20707 145338 2288 762418 566058 1045498 201105 15127 31380 86652 5813 32311 15622 12526 1097866 66057 1966 829103 438845 423142 5920 18056 13489 11836 854537 264057 783771
internal_value=-4.23699e-05 0.00644303 -0.0128614 0.00494962 0.00457048 0.0260595 -0.0115231 -0.0139102 0.00790058 0.0219151 0.0297806 0.0614233 -0.0012477 0.00668869 0.0336801 0.0648988 0.00603021 -0.0183329 0.0246372 0.0269298 -0.00200957 -0.00258282 -0.00561051 -0.000864878 0.0383577 -0.00177144 0.00572833 0.00890865 0.00170352 0.00836896
internal_weight=1.5915e+06 1.05683e+06 534668 982062 976430 74765 517738 442145 648321 70114.1 52340.6 10406.1 17773.5 604546 14397.1 8003.02 590149 330200 43775.2 4421.17 328109 323628 237290 111944 4834.72 3094.02 587478 328167 259311 325676
internal_count=8301915 5343582 2958333 4987744 4964618 355838 2844132 2450318 3252821 336552 247612 46507 88940 3041426 69201 36890 2972225 1860284 211395 21268 1711797 1691090 1252245 590034 23976 15455 2959699 1650144 1309555 1638308
is_linear=0
shrinkage=0.06


Tree=9
num_leaves=31
num_cat=0
split_feature=17 26 9 17 1 11 9 26 26 3 23 11 26 17 27 14 2 3 19 0 10 23 11 19 19 26 28 14 26 20
split_gain=32757.1 8813.67 9127.29 7324.2 6314.38 5808.9 5180.75 4650.49 4640.1 4369.73 4301.72 6476.24 3937.88 3170.03 3120.45 3167.9 3423.23 3263.43 5311.11 4925.61 3046.95 2764.04 3176.45 2726.95 2602 2834.37 2590.79 2569.06 2437.72 3255.72
threshold=0.94343350000000015 50.500000000000007 -0.036036953609538909 1.0000000180025095e-35 -0.3274029759502069 0.043144491363111888 0.025327927061636984 571.50000000000011 86.500000000000014 0.031728503412247706 -0.036750448022186931 0.017841178189452762 -386.99999999999994 2.6398430000000004 0.44952506074621618 0.0010530757121918 -0.25763753065517231 0.0015675199422629969 0.16401869895744842 2.5000000000000004 0.036998433448607683 -0.0088206528595932403 0.0023735621690707449 0.42832303327107907 0.19313834425263021 95.500000000000014 -0.24700355924652562 -0.012578202609539544 27.500000000000004 0.3741176173400742
decision_type=10 10 8 10 8 10 10 10 10 10 10 10 10 10 10 8 8 10 10 10 8 10 10 10 8 10 8 8 10 10
left_child=3 2 -2 -1 -3 9 14 8 27 12 -5 21 -4 26 15 17 -17 -6 -19 -20 -10 22 -12 -7 -16 -26 -14 -8 29 -25
right_child=1 4 5 10 6 23 7 -9 20 -11 11 -13 13 -15 24 16 -18 18 19 -21 -22 -23 -24 28 25 -27 -28 -29 -30 -31
leaf_value=-0.060501880353959044 0.049031139759647353 0.064803448943662134 0.050042279851683955 -0.00010677760063838554 0.0098266031135687652 0.0083752989358593967 0.088411533768055495 -0.067725417573643532 0.046892619038667864 0.1224786712460573 -0.022190491997212177 -0.0038711871541705885 0.0017261373311722964 0.0039385909863988286 0.082931447974060629 0.078270312955851962 0.0028220645831811973 0.02271205331814952 0.057306215127280201 0.19484281933701283 0.10728893454205381 -0.030594434924428884 -0.0052607306258096176 -0.017604169991961172 -0.0063179179740226179 0.058425548488872554 -0.008739813881646399 0.0038050641112175767 0.061207456219064732 0.10346932071056668
leaf_weight=11499.967312708497 14897.28801175952 8798.6200467199087 5259.4564950466156 88264.047474130988 53048.93292029202 208151.01293858886 1512.8213030099869 1373.355614989996 7765.4759062975645 1022.7999792248011 119087.28032056987 128305.01761811972 126769.14075177908 204286.67953632772 3532.8134690076113 2196.2925662696362 151524.78370828927 22756.154074341059 3925.5644377022982 1231.4707729071379 4907.4431665837765 69795.971402823925 59997.983202680945 4054.538134932518 5394.9166616350412 4435.7294142395258 259348.71106690168 8852.3077025562525 6854.2751808017492 995.96503627300262
leaf_count=82747 69235 38755 23058 467418 266666 1035334 6630 9144 35419 4342 680556 688632 665283 1024139 15546 10477 763111 114212 18662 5969 20204 407240 339417 19691 26894 19984 1364724 42342 31721 4363
internal_value=-4.36711e-05 0.00559447 0.00248929 -0.0131995 0.0147761 0.00164038 0.0131605 0.039534 0.045928 -0.00143253 -0.0120308 -0.0148211 -0.00164529 -0.00210574 0.010565 0.0089591 0.00390003 0.0185646 0.0351712 0.0901492 0.0702804 -0.020466 -0.0165186 0.00997263 0.0387667 0.0228953 -0.00530366 0.0161536 0.0379014 0.00627166
internal_weight=1.58985e+06 1.1129e+06 831640 476950 281257 816743 272458 24411.4 23038 596687 465450 377186 595664 590405 248047 234683 153721 80962.1 27913.2 5157.04 12672.9 248881 179085 220056 13363.5 9830.65 386118 10365.1 11904.8 5050.5
internal_count=8301915 5635905 4241890 2666010 1394015 4172655 1355260 113739 104595 3081546 2583263 2115845 3077204 3054146 1241521 1179097 773588 405509 138843 24631 55623 1427213 1019973 1091109 62424 46878 2030007 48972 55775 24054
is_linear=0
shrinkage=0.06


Tree=10
num_leaves=31
num_cat=0
split_feature=17 17 9 26 11 23 17 26 1 1 19 9 26 26 14 3 21 1 26 14 14 9 9 21 0 19 10 14 20 26
split_gain=29414 9124.62 5879.05 5401.33 5299.48 5635.73 4089.53 4020.22 4080.33 3885.5 3532.41 3513.4 3973.27 3626.35 3242.45 2903.38 3608.7 4836.12 2879.71 2717.36 3145.9 3015.45 8715.36 4519.16 3095.22 2639.02 2476.78 2455.1 4671.71 4042.11
threshold=1.5564500000000001 0.34682750000000007 -0.036036953609538909 50.500000000000007 0.042452048482196428 -0.058055587303757143 1.0000000180025095e-35 42.500000000000007 -0.39801219452508269 -0.3274029759502069 0.46835208988619081 0.025327927061636984 571.50000000000011 86.500000000000014 0.04672707615890815 0.012772145498312012 -1.0000000180025095e-35 0.093231651147579669 28.500000000000004 -0.020702317533351808 0.0052998452816655382 -0.0062757257412005309 -0.0078258134563426816 -1.0000000180025095e-35 2.5000000000000004 0.63564042548647948 0.036998433448607683 0.0064902299843122915 0.22903190397519843 -14.499999999999998
decision_type=10 10 8 10 10 10 10 10 10 8 10 10 10 10 10 10 10 8 10 8 10 10 10 10 10 10 10 10 10 10
left_child=1 6 -2 10 5 -3 -1 14 -9 -5 -4 -11 13 -13 19 18 -17 -18 -12 21 -21 22 -7 -24 -25 -10 -16 28 29 -22
right_child=2 4 3 9 -6 7 -8 8 25 11 15 12 -14 -15 26 16 17 -19 -20 20 27 -23 23 24 -26 -27 -28 -29 -30 -31
leaf_value=-0.059317164246232554 0.046678364521658959 0.0095559160244462465 0.0034218590567050948 0.06033193654912121 0.0096038010796689749 -0.0021190951920238245 -0.020737917287356751 0.08529169124856914 -0.0026540765283429991 0.011379073893741085 -0.016073676384822603 0.015584579095043384 -0.065813326583831322 0.068573529248654064 -0.031943667872420638 -0.015867441302098915 -0.077123259688747212 0.1161556958812591 0.045445977484514684 -0.019884148795477948 0.23626511249597881 -0.021447568152640671 0.026635223177134272 0.19435943419116206 0.052177222655567547 0.083819627368288546 0.094351510167598046 -0.010578472831760704 0.15617972442720485 0.0016339862377653485
leaf_weight=11039.985586643219 13854.982334077358 61392.046346262097 563762.24020460248 6686.0812046080828 71659.569116935134 31564.031963199377 95096.25659789145 1966.6281586140394 127326.85712051392 191777.84591698647 5770.6421061307192 8467.0520690381527 1249.5085578411818 10311.989229723811 817.65075345337391 1470.6750365048647 530.23562377691269 3849.8858515024185 5214.3380677551031 199110.64549937844 271.32177591323853 16729.504776149988 2406.5240963250399 1528.9972896575928 861.9025639295578 1283.3118862360716 1767.1823752522469 139317.87454688549 822.3036630153656 10250.598207205534
leaf_count=82747 62692 312835 2836811 28695 360161 172284 553488 8704 687409 947254 28268 39523 8787 44331 4328 7091 2629 16411 24042 1105896 1498 92150 13193 8464 4749 6228 8545 771107 4560 57035
internal_value=-4.51418e-05 -0.00840697 0.00792858 0.00725672 -0.00581433 -0.00766372 -0.0247508 -0.00963592 -0.000479652 0.015298 0.00423062 0.0138764 0.0377886 0.044682 -0.0125847 0.0313126 0.0654538 0.0927583 0.0131284 -0.0130145 -0.0149344 -0.00036634 0.0093329 0.0846798 0.143104 -0.00179122 0.054401 -0.00839289 0.0184482 0.00768426
internal_weight=1.58816e+06 775213 812945 799090 669077 597417 106136 536025 130577 218492 580598 211806 20028.5 18779 405449 16835.8 5850.8 4380.12 10985 402864 349773 53091 36361.5 4797.42 2390.9 128610 2584.83 150662 11344.2 10521.9
internal_count=8301915 4255381 4046534 3983842 3619146 3258985 636235 2946150 702341 1068590 2915252 1039895 92641 83854 2243809 78441 26131 19040 52310 2230936 1940096 290840 198690 26406 13213 693637 12873 834200 63093 58533
is_linear=0
shrinkage=0.06


Tree=11
num_leaves=31
num_cat=0
split_feature=17 26 9 17 11 1 1 26 26 10 14 21 3 11 23 14 2 3 1 14 26 14 19 11 23 3 26 10 2 23
split_gain=26270.4 7064.22 7145.75 6348.08 4946.27 4945.03 4167.84 4280.3 3942.73 5927.86 3495.66 5156.82 3545.91 3418.07 4655.58 3377.08 4783.75 4159.41 4691.58 2988.88 2976.23 2954.1 2833.22 2730.81 2912.17 2567.41 3189.38 5563.35 3541.84 2608.81
threshold=0.91241900000000009 50.500000000000007 -0.036036953609538909 1.0000000180025095e-35 0.043817921694923691 -0.3274029759502069 0.55394660141943908 571.50000000000011 -44.499999999999993 0.00513026731674946 -0.020702317533351808 -1.0000000180025095e-35 0.031728503412247706 0.029971887021985246 -0.027586206896551731 0.0010530757121918 -0.27632876309055643 0.0015675199422629969 -0.090383932975067874 -0.0051865808089880264 100.50000000000001 -0.025128887236163352 -0.14190936613534072 0.0063343008635707489 -0.0055167330881311987 -0.0079033709189709825 -44.499999999999993 -0.01060629057803658 0.14342332365628674 -0.010559158869596874
decision_type=10 10 8 10 10 8 10 10 10 10 8 10 10 10 10 8 8 10 10 8 10 10 10 10 10 8 10 8 8 10
left_child=3 2 -2 -1 10 -3 15 -8 9 -5 11 21 19 14 -10 17 -17 20 -19 -12 -7 -4 -22 -16 -25 -21 27 -27 -29 -28
right_child=1 5 4 8 -6 6 7 -9 13 -11 12 -13 -14 -15 23 16 -18 18 -20 25 22 -23 -24 24 -26 26 29 28 -30 -31
leaf_value=-0.058164616007181154 0.042499331152088503 0.056407009722079779 0.055832616184149746 0.011296693507952321 0.0090569343486898955 0.0023835528090240306 0.04919734465832945 -0.065631600509663435 -0.0045335473105009112 0.16915270210070935 -0.010365599861161669 0.0018391238737163116 0.10713290460367404 0.0011738543463188655 -0.025919338208314841 0.086274917941559434 0.0034815651792882061 0.010977682861105438 0.055744304278572604 -0.017568230705032457 -0.062578880487493882 0.0093899266689914194 0.047387196688671619 -0.0026472452443135498 -0.02029824012512221 -0.053772487197598445 0.0042325516424198302 0.17851587972071487 0.049577016243248888 -0.0070490780670174362
leaf_weight=10596.821107447147 15453.786156103015 9133.0499946922064 11604.336107462645 6866.7973907291889 219214.93993237615 45573.613107174635 15498.627049818635 1263.9251708090305 122809.50470815599 978.42896224558353 161358.4810359478 73167.161399960518 1043.3661707639694 61471.84850731492 109199.13744015992 2550.41675747931 168315.8575271368 15315.858144879341 18739.429576814175 29216.413878068328 924.48009863495827 8573.1036513894796 9624.4562765061855 55920.554975628853 84492.108483627439 1446.1729865670204 207971.72099484503 1044.9355939328671 2882.8495898097754 114370.35325802863
leaf_count=82747 70140 39363 58776 36685 1080341 228197 67494 9151 672707 5205 839754 370396 4377 321279 643097 11295 840338 76168 88434 152185 4616 44439 46525 318176 486931 7501 1078406 5338 13434 598420
internal_value=-4.67475e-05 0.00482873 0.00207331 -0.0122726 0.00132234 0.0129656 0.0115374 0.040539 -0.0111717 0.0309839 -0.00144508 0.00924493 -0.0033665 -0.0119339 -0.0140975 0.00967514 0.00471737 0.019069 0.0356112 -0.00358894 0.00903113 0.0360998 0.0377501 -0.018803 -0.0132686 -0.000525418 0.000993976 0.0468363 0.0838795 0.000229711
internal_weight=1.58662e+06 1.13429e+06 847348 452335 831894 286940 277807 16762.6 441738 7845.23 612679 93344.6 519334 433893 372421 261044 170866 90177.8 34055.3 518291 56122.5 20177.4 10548.9 249612 140413 356932 327716 5373.96 3927.79 322342
internal_count=8301915 5735088 4323507 2566827 4253367 1411581 1372218 76645 2484080 41890 3173026 473611 2699415 2442190 2120911 1295573 851633 443940 164602 2695038 279338 103215 51141 1448204 805107 1855284 1703099 26273 18772 1676826
is_linear=0
shrinkage=0.06


Tree=12
num_leaves=31
num_cat=0
split_feature=17 17 10 17 26 1 14 11 1 1 1 23 19 19 10 20 14 2 2 26 27 1 10 2 19 25 0 0 14 26
split_gain=23758.2 8034.29 4768.01 4489.65 4340.61 3787.47 3544.58 4096.58 3456.96 3547.36 3066.08 2825.95 2766.05 8131.24 9634.99 5485.68 3711.57 2826.49 2780.09 2739.45 3792.57 2702.83 2585.7 3992.37 2445.82 2445.02 2426.7 2378.76 2184.8 2369.19
threshold=1.6538255000000002 0.48620750000000007 -0.069413044658057935 1.0000000180025095e-35 50.500000000000007 0.37142520908882448 -0.020702317533351808 0.024201476041141378 -0.39801219452508269 0.80469560298153919 -0.39801219452508269 -0.023277760301981712 -0.064818030592327838 -0.032969473221095162 -0.024040772771542668 0.056486375490377917 -0.03051174050233043 0.038298019971683729 -0.094064851495311283 58.500000000000007 -0.2554170732382634 0.55394660141943908 0.038426204361591228 0.036000767385640557 0.52797585833191574 -0.10618952838350611 1.0000000180025095e-35 1.5000000000000002 0.050020215740657063 38.500000000000007
decision_type=10 10 8 10 8 10 8 10 8 10 8 10 10 10 10 10 10 10 10 10 8 10 10 10 10 8 10 10 10 10
left_child=1 3 -2 -1 6 10 12 11 -6 19 -4 -8 18 14 27 17 -15 -16 -3 21 -21 -10 24 -24 -12 -22 -7 -14 -9 -30
right_child=2 4 5 -5 8 26 7 28 9 -11 22 -13 13 16 15 -17 -18 -19 -20 20 25 -23 23 -25 -26 -27 -28 -29 29 -31
leaf_value=-0.057039148594221378 0.066601384291214677 0.007581437641358703 0.056834341574586771 -0.016022865191014476 0.078343046673168076 -9.5121867888261274e-06 -0.0065755958228393184 -0.00059998765612009398 0.015466140493447637 0.07696107990505717 0.0047588916889966196 -0.018096494372716314 0.17120797268295876 0.028432704557091019 0.18074261201388522 -0.0031614250004315578 -0.012761337433087822 -0.0032639187285054181 -0.025206316488030914 0.075314651017526671 0.064966315962845592 0.15258428455501 0.052822859386365932 -0.0063268379435228624 0.059303410334625863 -0.0066728722797225783 0.028710456957389219 -0.049117820095967206 0.085040339740781692 -0.021349615781444852
leaf_weight=10170.639100655913 4871.5702961236238 22453.112756446004 4223.0720503628254 173459.63139741123 2355.2538504600525 13944.623231366277 155463.93756115437 118482.30445177853 33516.473114639521 2408.4768099635839 691459.99602346122 151183.3562887609 194.74738004803658 13530.535394176841 3134.3308856636286 899.85756140947342 18834.282180130482 332.39786216616631 15904.042609617114 2175.6597768962383 1755.4658280014992 525.64048489928246 10062.039388164878 6942.2562681436539 2972.2604930847883 74544.223844140768 44043.785099208355 1873.4659010469913 2198.2786882072687 1146.5455553084612
leaf_count=82747 20100 118969 16932 1008147 10152 69074 842490 617163 176571 10218 3451145 863421 932 67862 16450 4855 102141 1827 84853 10995 8343 2447 45473 34863 13366 392813 201877 10017 9947 5725
internal_value=-4.82031e-05 -0.0072652 0.00742857 -0.0182946 -0.0040138 0.00705596 -0.00642598 -0.00855776 0.00638579 0.00491112 0.00586095 -0.0122556 0.00541239 0.0167079 0.0783084 0.128837 0.00446037 0.1631 -0.00601336 0.00336886 -0.0027973 0.0175834 0.00555838 0.0286741 0.00499235 -0.00502463 0.0218041 -0.0283715 0.000750048 0.0485718
internal_weight=1.58506e+06 806543 778520 183630 622912 773648 505631 428474 117281 114926 715660 306647 77156.8 38799.6 6434.8 4366.59 32364.8 3466.73 38357.2 112517 78475.3 34042.1 711437 17004.3 694432 76299.7 57988.4 2068.21 121827 3344.82
internal_count=8301915 4449085 3852830 1090894 3358191 3832730 2746652 2338746 611539 601387 3561779 1705911 407906 204084 34081 23132 170003 18277 203822 591169 412151 179018 3544847 80336 3464511 401156 270951 10949 632835 15672
is_linear=0
shrinkage=0.06


Tree=13
num_leaves=31
num_cat=0
split_feature=17 17 11 23 10 8 1 11 23 26 1 25 14 17 26 23 11 26 14 21 9 26 1 20 27 14 27 2 14 27
split_gain=21055.3 7142 4514.35 6212.34 4341.16 3695.92 3628.04 3376.36 3788.58 2852.3 2814.86 2649.09 2556.98 2510.46 2141.89 2113.89 2145.88 2097.42 2335.07 3107.43 2405.9 4219.3 3977.22 2579.63 2549.34 2336.91 2216.09 2046.6 2945.01 2182.95
threshold=1.5564500000000001 0.24041050000000003 0.033762947583249735 -0.031901612336601548 -0.069413044658057935 -0.21300199734156836 0.55394660141943908 0.01116427432216914 -0.0015226953589195728 571.50000000000011 -0.39801219452508269 -0.12318670875335162 0.063821164822042004 1.0000000180025095e-35 -386.99999999999994 -0.012619712919279552 -0.0015746572939843244 42.500000000000007 -0.020702317533351808 -1.0000000180025095e-35 -0.0022189805707957932 -30.499999999999996 -0.03167263610392549 -0.041733921569012448 -0.10114980312459591 0.050020215740657063 -0.17949282701296523 -0.0056988509465492826 0.038024182943001146 -0.0046146767545243465
decision_type=10 10 10 10 8 8 10 10 10 10 8 8 10 10 10 10 10 10 8 10 8 10 8 8 8 10 10 8 10 8
left_child=1 13 3 11 -2 -5 10 15 -9 -8 -6 -3 14 -1 -12 16 -7 18 19 -16 -20 22 -22 25 -24 -23 -21 28 -25 -29
right_child=4 2 -4 5 6 7 9 8 -10 -11 12 -13 -14 -15 17 -17 -18 -19 20 26 21 23 24 27 -26 -27 -28 29 -30 -31
leaf_value=-0.055936269430198284 0.061809768704605653 0.037251288310873598 0.0053512567718871709 -0.0045621518214010301 0.053292717179254864 -0.02887598428681867 0.032538997655487248 0.00056813686852223613 -0.019686700753543316 -0.06390672275933558 0.05099309910292886 -0.00034775672602353731 0.042409646999201168 -0.0222490794752369 0.036161211709809848 -0.035719147489084467 -0.009152970272538254 0.0091985443022575067 -0.0049412190845112098 0.036272415704809921 -0.02493394354931203 -0.0058955232663842963 -0.037429221617496289 0.014156941914340603 0.096206374548598109 0.073063263137507037 0.0015204145361818289 -0.013601799155062658 0.10004839813725171 0.0068485884604884808
leaf_weight=9761.4642267972231 5102.5211210548878 6992.4426437914371 113427.04400898516 150024.89282882214 4423.2084246128798 37393.408751443028 24995.968045830727 64077.425022393465 69089.6304128021 1154.909830763936 3624.4474008083344 191406.7965297848 6625.40870462358 43247.276348054409 15656.579433605075 37216.749852120876 42351.804217472672 256241.91115625203 160975.21179828048 7596.5016634017229 1781.648709282279 95260.222313925624 584.91097475588322 60582.462664142251 4233.5513499677181 1368.7968778461218 50656.016537323594 23576.054334163666 1472.0252394378185 92576.108192786574
leaf_count=82747 20997 34017 575262 847194 17748 219187 110427 356919 388052 8783 15041 1020470 29371 263351 76956 225196 242986 1256035 813583 37036 8831 478993 2986 304883 19002 6152 249900 118448 7362 464000
internal_value=-4.91452e-05 -0.00720571 -0.00562383 -0.00770363 0.00663964 -0.0120077 0.00629354 -0.0164735 -0.00994046 0.0282796 0.0055632 0.000977395 0.0052935 -0.0284525 0.00497669 -0.0239118 -0.0184013 0.0047608 0.00255842 0.0124304 0.000909199 0.00425551 0.0516625 0.00311704 0.0799844 -0.00477703 0.0060523 0.00739745 0.0161944 0.00269766
internal_weight=1.58348e+06 764989 711980 598553 818488 400154 813386 250129 133167 26150.9 787235 198399 782812 53008.7 776186 116962 79745.2 772562 516320 73909.1 442411 281436 6600.11 274836 4818.46 96629 58252.5 178207 62054.5 116152
internal_count=8301915 4255381 3909283 3334021 4046534 2279534 4025537 1432340 744971 119210 3906327 1054487 3888579 346098 3859208 687369 462173 3844167 2588132 363892 2224240 1410657 30819 1379838 21988 485145 286936 894693 312245 582448
is_linear=0
shrinkage=0.06


Tree=14
num_leaves=31
num_cat=0
split_feature=17 26 9 17 11 23 1 1 10 26 2 10 14 2 3 1 26 3 8 3 19 19 1 20 20 26 27 26 19 19
split_gain=19061.8 6007.58 5584.81 4951.77 4599.53 5045.1 4058.81 3807.86 4717.25 3238.15 4544.32 3889.5 3026.71 4152.29 3970.6 4210.72 2745.18 2736.66 2662.66 2565.5 2386.4 7283.72 3322.77 3273.31 2693.55 2360.18 2521.56 2520.7 2377.62 2294.06
threshold=0.80458300000000016 50.500000000000007 -0.036036953609538909 1.0000000180025095e-35 0.023472901149120963 -0.027978709141065931 -0.3274029759502069 0.80469560298153919 0.11110141866372968 -44.499999999999993 -0.010569859922267539 -0.0063634152738154676 0.0010530757121918 -0.25763753065517231 0.0015675199422629969 -0.090383932975067874 -386.99999999999994 0.031728503412247706 -0.15748134780051506 0.0085294602660475199 0.031180809908901479 0.037279580647354642 -0.20781316998811855 0.25279892216665195 -0.094815672648943125 100.50000000000001 -0.25012750798186295 77.500000000000014 -0.14190936613534072 0.48515461844137242
decision_type=10 10 8 10 8 10 8 10 10 10 8 10 8 8 10 10 10 10 8 10 10 10 8 10 10 10 10 10 10 10
left_child=3 2 -2 -1 5 16 -3 12 -9 10 11 -5 14 -14 25 -16 -4 -18 -7 -17 22 -22 -15 -24 -23 26 -8 -28 -27 -6
right_child=1 6 4 9 29 18 7 8 -10 -11 -12 -13 13 20 15 19 17 -19 -20 -21 21 24 23 -25 -26 28 27 -29 -30 -31
leaf_value=-0.054852003327982339 0.036011685284435581 0.049301201034960516 0.044029068876389542 0.015790442339768746 0.0046507154943753702 -0.003232856142921986 0.076514009660068383 0.070390437518718998 -0.030374524143120918 -0.011432297116655126 -0.0054703845649322356 0.1735653678865387 0.068519477415235674 0.034106762542902715 0.0091781353551685478 0.073604949442872533 0.00034696042259605803 0.10410900962079794 -0.017667740487595965 0.031561459179223213 0.22017459340800755 -0.018836857371126323 -0.01347948313959562 0.064001494392011027 0.010195042295010106 -0.060714165031981557 0.0074726967674241 -0.023929168389111286 0.03905027401474092 0.028608552709275162
leaf_weight=9369.2021593526006 16291.701948702335 9637.9263784438372 5338.0983446389437 1053.6993429809809 359716.34389916062 84979.698986545205 1570.975934997201 7269.2433047145605 2172.3421953842044 363594.27133265138 4205.983610406518 1206.6345681548119 3511.9395447820425 6570.4384449571371 16036.341881886125 9269.5750487297773 319130.05756007135 917.68488003313541 100301.79022838175 11974.399245455861 579.13562674820423 13005.342208102345 57739.925124868751 2031.9860513359308 99708.109593153 932.01979742944241 35167.041152462363 12464.400274947286 11127.79489402473 14987.921296909451
leaf_count=82747 73066 41358 22884 5656 1799717 458620 7681 30234 13192 2092378 22461 6273 15559 32326 79395 43464 1642249 3874 549321 54524 2954 65640 291202 8457 492206 4787 175747 62449 52502 68992
internal_value=-4.94434e-05 0.0036504 0.00120098 -0.0117745 0.000560425 -0.003144 0.0109935 0.00972527 0.0472062 -0.0106838 0.0314027 0.100015 0.00846899 0.00390691 0.0169479 0.0323871 0.00135622 0.000644481 -0.0110472 0.0499067 0.0026437 0.00793573 -0.00639347 -0.0108455 0.00684522 0.00755258 0.0017221 -0.000744678 0.0313402 0.00560901
internal_weight=1.58186e+06 1.20243e+06 901663 379430 885372 510667 300769 291131 9441.59 370061 6466.32 2260.33 281689 183147 98542.5 37280.3 325386 320048 185281 21244 179635 113293 66342.3 59771.9 112713 61262.2 49202.4 47631.4 12059.8 374704
internal_count=8301915 6092400 4618723 2209515 4545657 2676948 1473677 1432319 43426 2126768 34390 11929 1388893 908344 480549 177383 1669007 1646123 1007941 97988 892785 560800 331985 299659 557846 303166 245877 238196 57289 1868709
is_linear=0
shrinkage=0.06


Tree=15
num_leaves=31
num_cat=0
split_feature=17 17 26 26 20 1 1 10 14 1 1 10 26 27 14 14 20 20 9 9 26 26 9 19 20 14 9 1 17 0
split_gain=17101.9 6418.84 3923.47 3652.76 5289.49 3871.01 4514 3428.4 3389.31 3380.62 3295.08 3172.14 3084.95 3792.82 3077.66 4613.96 3414.89 3074.36 3018.87 10361 4204.59 5893.72 2923.95 2887.12 4967.59 5671.22 4847.2 2873.92 2773.44 2740.47
threshold=1.7064165000000002 0.30263750000000006 50.500000000000007 -44.499999999999993 -0.19818202798148657 -0.043311568543877903 -0.028517667110477925 -0.069413044658057935 0.04672707615890815 -0.39801219452508269 0.80469560298153919 0.038426204361591228 58.500000000000007 -0.2554170732382634 -0.017868873601413458 0.0052998452816655382 -0.036401571257415312 0.045638923268481575 -0.0049133329236046045 -0.0078258134563426816 2.5000000000000004 38.500000000000007 0.026966041275158486 0.026442146419792697 0.0015434143863012743 0.019611034113747046 0.00716397440438376 0.55394660141943908 1.0000000180025095e-35 3.5000000000000004
decision_type=10 10 10 10 10 10 10 8 10 8 10 10 10 8 8 10 10 10 10 10 10 10 10 10 10 10 10 10 10 10
left_child=1 28 3 4 -3 -6 -7 -2 14 -4 12 -10 23 -14 18 -16 -17 -13 19 -5 -21 -22 -9 -11 25 26 29 -26 -1 -25
right_child=7 2 9 8 5 6 -8 22 11 10 -12 17 13 -15 15 16 -18 -19 -20 20 21 -23 -24 24 27 -27 -28 -29 -30 -31
leaf_value=-0.053782850988279701 0.057162193018597318 0.15245894446095049 0.07083679270614987 -0.00031438896044095894 -0.037275490355395728 0.20724198326317383 0.022009492014441454 0.0053315547885992142 -0.028923237704690168 -0.00012700005024931228 0.069027554212039821 0.0900421496562437 0.066689227544414018 -0.0061608088400046208 -0.015249542643042895 -0.012851376743456036 0.0025216268306085094 -0.029069486949979489 -0.01458772828162015 0.14255845700231651 0.018101139663696062 0.15420660717970483 0.024436505492266426 0.097792514814339704 0.0065945268387575607 -0.009191672292739872 0.18930376744544183 0.13778274895089462 -0.018362601477024853 -0.050361298590473023
leaf_weight=8993.6630122587085 4761.036795437336 1031.4656675308943 2740.0271923243999 65440.946881562471 4201.5935462117195 493.68825803697109 11650.897519394755 728684.12912556529 1897.3645654171705 20007.877036571503 2706.9134992584586 3506.9627879410982 2650.8157346397638 87416.71205535531 255202.64538393915 84518.369316518307 135281.14134797454 1003.2684737592936 29604.212387964129 2089.9109438508749 5646.360811650753 1436.813408061862 30027.398375734687 1715.2704553753138 13382.592890068889 1870.5124088078737 1840.8320689052343 629.43013390898705 69126.900453016162 609.07201480865479
leaf_count=82747 19575 4869 11764 351997 22520 2446 57953 3593297 10136 106349 11415 16050 13012 464850 1431090 467716 746886 5093 163388 10405 30593 7149 141305 9014 70236 9951 9351 2848 424597 3313
internal_value=-4.97082e-05 -0.00608486 -0.00435491 -0.00642844 0.0206808 0.0123654 0.0295394 0.00640617 -0.00723286 0.004868 0.00350719 0.0361652 0.00214419 -0.00401673 -0.00771295 -0.00976158 -0.00338967 0.0635466 0.00162423 0.00805656 0.067775 0.04571 0.00608767 0.0159974 0.0320898 0.0775968 0.116572 0.0124876 -0.0224404 0.0589702
internal_weight=1.58017e+06 816696 738576 603006 17377.6 16346.2 12144.6 763473 585628 135570 132830 6407.6 130123 90067.5 579220 475002 219800 4510.23 104218 74614 9173.09 7083.17 758712 40055.6 20047.7 6035.69 4165.17 14012 78120.6 2324.34
internal_count=8301915 4547738 4040394 3328291 87788 82919 60399 3754177 3240503 712103 700339 31279 688924 477862 3209224 2645692 1214602 21143 563532 400144 48147 37742 3734602 211062 104713 31629 21678 73084 507344 12327
is_linear=0
shrinkage=0.06


Tree=16
num_leaves=31
num_cat=0
split_feature=17 14 11 17 23 11 23 11 26 23 11 9 26 26 26 1 10 3 26 9 2 23 2 2 11 0 8 8 26 9
split_gain=15528.1 4938.99 5365.64 4354.1 4156.77 4122.02 4125.33 3120.2 2841.94 2808.14 3927.71 2678.8 2667.11 3294.13 2409.75 2408.04 2901.99 3971.12 2361.34 2316.16 2312.92 2287.05 2249.94 3078.64 2018.09 1695.56 1625.93 1459.35 1325.26 1384.4
threshold=0.81432000000000004 -0.058109705944758262 0.036964390073108824 1.0000000180025095e-35 -0.009110306657789358 0.0090600565938014788 -0.034013995034964585 0.016248364152669063 -3.4999999999999996 -0.035339430168595316 0.01428892251754872 0.020516232076661957 57.500000000000007 30.500000000000004 51.500000000000007 0.48237328754182468 0.11110141866372968 0.020689903292264621 26.500000000000004 0.031587569385523401 -0.30474045257809051 -0.009693264932029667 0.070287424670084683 0.092599260211491327 -1.0000000180025095e-35 inf -0.11585489783044721 -0.16932012776563934 7.5000000000000009 0.030232710388841195
decision_type=10 8 10 10 10 10 10 10 10 10 10 10 10 10 8 10 10 10 10 10 10 10 10 10 10 8 8 8 10 10
left_child=3 8 4 25 5 6 11 27 -2 -5 21 -3 13 19 -10 20 17 22 -8 28 -4 24 -17 -24 -11 -1 -9 -6 -13 -30
right_child=1 2 15 9 7 -7 18 26 14 10 -12 12 -14 -15 -16 16 -18 -19 -20 -21 -22 -23 23 -25 -26 -27 -28 -29 29 -31
leaf_value=-0.061855797621665515 0.06242837806108751 0.0021126910084735264 0.042061850687094518 0.00089180152148549694 -0.007913393625141367 0.010966196674109427 -0.017301581969974635 0.0042446647923966461 -0.003520758566955543 -0.019766614512721999 -0.0037932852268576858 0.11216477634319483 0.06402313720632638 -0.029437956655860607 0.056624154275108383 -0.01935012623655295 -0.028278726884148939 0.085730192975863942 -0.0016059640176821087 -0.038972043407445547 0.0065734444517465129 -0.029052085778099375 0.10743971957302872 0.022580669869259204 -0.0045567672699992423 0.024702985472352754 -0.0089287958264464198 -0.031618783645519698 0.0072616285514178324 0.1176452497882903
leaf_weight=7723.8170692250133 7504.5224181264639 303939.38335651159 6736.7260907739401 73353.057614415884 14899.782951205969 150448.26462141424 66349.36020500958 55126.146412551403 7867.7187498956919 79203.291149407625 119673.57354965806 1415.6527285426855 5027.8799486011267 4148.1748527884483 3449.6389723867178 3941.9861196726561 3240.5574475228786 4148.415604904294 71900.886392474174 934.15345825254917 355227.86199730635 47909.453479647636 1704.1932175457478 15887.09845200181 52037.92763017118 910.75906699895859 86897.10068193078 25095.624464020133 1522.4072871804237 559.29913412034512
leaf_count=74019 30665 1542107 29660 398113 81309 769389 364686 286752 37114 479915 670661 6528 21762 20967 14114 18778 18192 17162 377017 4746 1736590 301679 7310 70666 309492 8728 452888 140461 7734 2711
internal_value=-5.06545e-05 0.00330425 0.00281752 -0.0106047 -3.2626e-05 0.00235478 -0.000487646 -0.00798432 0.0337972 -0.00962744 -0.0122096 0.00327873 0.0293235 0.00898876 0.014812 0.00856513 0.0252251 0.0319763 -0.00913864 0.0449586 0.00723394 -0.0178318 0.0216206 0.0308016 -0.0137358 -0.0527257 -0.00381553 -0.0227876 0.0673767 0.0369188
internal_weight=1.57878e+06 1.19797e+06 1.17915e+06 380812 788264 606245 455797 182019 18821.9 372177 298824 317547 13607.6 8579.69 11317.4 390887 28922.3 25681.7 138250 4431.51 361965 179151 21533.3 17591.3 131241 8634.58 142023 39995.4 3497.36 2081.71
internal_count=8301915 6059308 5977415 2242607 4079057 3117647 2348258 961410 81893 2159860 1761747 1606555 64448 42686 51228 1898358 132108 113916 741703 21719 1766250 1091086 96754 77976 789407 82747 739640 221770 16973 10445
is_linear=0
shrinkage=0.06


Tree=17
num_leaves=31
num_cat=0
split_feature=17 26 9 17 11 23 1 3 27 14 27 1 26 3 20 1 20 26 9 9 26 26 11 26 2 10 23 26 11 3
split_gain=13814.4 4977.34 4405.18 3968.07 3708.42 3743.41 3479.33 2943.82 3846.89 2909.55 4682.82 2921.74 4080.41 3203.56 4769.72 2785.01 3493.08 2734.4 2659.52 2994.59 2662.61 2587.85 2471.46 2448.7 3399.06 2631.75 2444.48 2253.87 2346.95 2215.29
threshold=0.75751450000000009 50.500000000000007 -0.036036953609538909 1.0000000180025095e-35 0.02950436355391569 -0.022584541848427082 -0.39801219452508269 0.00019743814232646382 -0.26232210450978771 0.0010530757121918 -0.048401896283702332 0.80469560298153919 571.50000000000011 0.00074564717035120471 -0.011910878736010273 -0.15872131649620816 -0.027863169555013178 163.00000000000003 1.0000000180025095e-35 0.00045496772708457671 67.500000000000014 95.500000000000014 0.0099843611811442617 -44.499999999999993 -0.0092616914302330773 -0.0063634152738154676 -0.0015226953589195728 -386.99999999999994 0.0023735621690707449 0.031728503412247706
decision_type=10 10 8 10 8 10 8 10 8 8 10 10 10 10 10 8 10 10 10 10 10 10 10 10 10 10 10 10 10 8
left_child=3 2 -2 -1 5 27 -3 8 -8 10 -9 13 21 14 -11 -15 17 -17 -12 -20 -21 -13 -7 24 25 -5 -24 -4 29 -29
right_child=1 6 4 23 -6 22 7 9 -10 11 18 12 -14 15 -16 16 -18 -19 19 20 -22 -23 26 -25 -26 -27 -28 28 -30 -31
leaf_value=-0.051687373854307196 0.031252072829996994 0.056784005158642653 0.038722351183625381 0.012802862548897554 0.0052195201472925992 -0.019417810744414624 0.074671409128721139 -0.00016423401814825376 -0.00093136051361794776 0.10314472240359784 0.0092922630020861215 0.018651506591955379 -0.063971366014284825 0.031889644908421902 0.0060520078664407298 -0.015702516469742175 0.0090185876363435523 0.079311384604032933 0.16057107904171875 0.074792822050419525 0.030416002071162428 0.086063554396682229 0.0010833417856656732 -0.010362205231669556 -0.0063444384254313776 0.14499086247513709 -0.015960820522241938 -0.0025246635725906237 0.0094790531856937792 0.095234338600077989
leaf_weight=8292.7630804404616 16704.092578560114 5509.357279509306 5531.4995162338018 958.96924729645252 331302.33485527337 61893.534205570817 2479.3027684539557 15401.503735035658 106514.13888774812 3029.5450936555862 7257.673947378993 3691.9493919610977 1161.7920840233564 12287.456446275115 4567.7777483016253 37505.137224823236 80278.72267138958 1123.0609193742275 865.79865409433842 7689.4367735087872 13262.636074498296 4609.7446279525757 86247.757032468915 329502.41880859435 3742.9922210127115 1247.6035301834345 46692.508101314306 299762.00566786528 77144.345213443041 836.81760962307453
leaf_count=82747 74395 22474 23455 5120 1630906 350915 11404 74144 529246 14907 35045 15208 9207 58380 23032 188240 393987 4689 3830 35435 62104 19385 462615 1933424 20136 5883 257430 1553443 397069 3660
internal_value=-5.00984e-05 0.00291448 0.000719099 -0.0106869 0.000158268 -0.00274223 0.00953213 0.00866933 0.000788396 0.0131261 0.0265855 0.00908829 0.0413452 0.00688885 0.0447692 0.00469525 0.00188506 -0.0129401 0.040755 0.051221 0.0467024 0.0560839 -0.00951402 -0.00967337 0.0284763 0.0875424 -0.00490307 0.000700134 0.000143354 -0.00225252
internal_weight=1.57709e+06 1.23335e+06 926115 343745 909411 578108 307235 301726 108993 192732 44477 148255 9463.49 138792 7597.32 131194 118907 38628.2 29075.5 21817.9 20952.1 8301.69 194834 335452 5949.56 2206.57 132940 383275 377743 300599
internal_count=8301915 6254605 4753888 2047310 4679493 3048587 1500717 1478243 540650 937593 210558 727035 43800 683235 37939 645296 586916 192929 136414 101369 97539 34593 1070960 1964563 31139 11003 720045 1977627 1954172 1557103
is_linear=0
shrinkage=0.06


Tree=18
num_leaves=31
num_cat=0
split_feature=17 17 11 23 11 23 26 10 21 1 26 9 9 26 10 9 1 1 1 26 2 9 19 1 3 27 11 1 26 14
split_gain=12485.8 5064.47 3525.38 6114.49 3405.61 4267.04 2860.94 2720.7 2958.71 2487.27 3328.05 2304.21 3591.44 2300.81 3754.47 2234.38 2186.61 2805.31 2141.9 2696.24 2152.35 2085.4 2050.03 1927.84 1880.75 1879.4 1751.03 1688.68 1794.56 2127.38
threshold=1.7244260000000002 0.21127700000000002 0.027325624802497565 -0.023277760301981712 0.005105318097325934 -0.0052284451723253328 50.500000000000007 -0.023274880197349451 -1.0000000180025095e-35 0.13638771877826686 -30.499999999999996 0.026966041275158486 0.031587569385523401 -44.499999999999993 0.00513026731674946 -0.036036953609538909 -0.043311568543877903 -0.028517667110477925 0.74622164781032807 571.50000000000011 -0.26495565107664415 -0.02097060416468444 0.46835208988619081 0.33319509237895689 0.0019583239095649989 -0.066961054636142506 0.013655966550198833 0.80469560298153919 95.500000000000014 0.033607125204833339
decision_type=10 10 10 10 10 10 10 8 10 10 10 10 10 10 10 10 10 10 10 10 10 10 10 10 10 10 10 10 10 10
left_child=1 -1 3 6 -5 -6 13 8 -2 11 23 -9 24 14 16 -10 -3 -18 20 22 -12 25 -20 -11 -13 -17 -7 -4 29 -29
right_child=7 2 27 4 5 26 -8 9 15 10 18 12 -14 -15 -16 21 17 -19 19 -21 -22 -23 -24 -25 -26 -27 -28 28 -30 -31
leaf_value=-0.026336828791327479 0.044487259403708783 -0.029696436008862768 0.0024589516976766378 -0.022079268373758867 0.00050124857396741974 -0.02997306064477968 0.015132975704297868 0.0013767026945019781 0.035187858130917286 0.07553624136206992 0.068356267082939556 0.18590883000337954 -0.023066046112997809 -0.0038529182909351079 0.1362835197656915 0.017560007922169871 0.17345248712799113 0.019763801054054335 -0.025237056320181587 -0.06145454487139837 0.0058589657740406049 0.01513964690260562 0.050200931470287646 0.02072196490306772 0.045860686812587648 -0.0241200386413471 -0.012185027767954201 0.13018273393707319 0.088292612291268877 -0.025497750571899572
leaf_weight=38897.414482608438 11511.554021909833 3298.1254771947861 171908.56244310737 90786.574342474341 103646.70625144243 26440.325736865401 37978.11442707479 475382.57532455027 11390.029996141791 4120.7475579380989 2005.9823372662067 363.06996367871761 3235.3921735435724 246346.36264932156 947.81043320894241 5750.4760137349367 447.43513886630535 9626.5163253694773 1489.2600981146097 1017.1258155629039 179196.77456440032 30675.632939279079 10036.222217515111 5256.164235830307 7016.279643163085 12067.80848325789 80815.032175928354 392.44091849029064 1718.4280687794089 1622.1681273728609
leaf_count=281017 52954 17743 885389 550132 592785 164178 195604 2356935 49662 18274 8077 1771 16170 1356900 4227 28013 1995 46875 6664 8678 870282 146700 42719 24058 32247 58320 467694 1662 7340 6850
internal_value=-4.95775e-05 -0.00520988 -0.00415084 -0.00633834 -0.012363 -0.00818047 -0.000252263 0.00547955 0.0166289 0.00432443 0.00990019 0.00199405 0.0296419 -0.00249384 0.0208866 0.0112737 0.0127073 0.0265899 0.0082106 0.0321892 0.00655083 0.00565681 0.0404532 0.0448105 0.0527512 -0.0106687 -0.0165701 0.0033259 0.0432495 0.00482843
internal_weight=1.57539e+06 814872 775975 600333 301689 210902 298644 760515 71395.5 689120 203122 485997 10614.7 260666 14319.9 59883.9 13372.1 10074 193745 12542.6 181203 48493.9 11525.5 9376.91 7379.35 17818.3 107255 175642 3733.04 2014.61
internal_count=8301915 4580391 4299374 3398133 1774789 1224657 1623344 3721524 335649 3385875 978752 2407123 50188 1427740 70840 282695 66613 48870 936420 58061 878359 233033 49383 42332 34018 86333 631872 901241 15852 8512
is_linear=0
shrinkage=0.06


Tree=19
num_leaves=31
num_cat=0
split_feature=17 26 14 14 21 26 3 17 9 20 1 19 26 3 14 1 3 26 9 0 2 1 3 20 21 14 14 9 1 0
split_gain=11089.5 4297.83 5072.79 4628.97 3602.44 3778.02 3767.35 3596.62 3396.27 5218.62 3131.31 3047.74 3248.04 3023.81 2832.48 2696.97 2569.14 2559.12 4738.89 2914.21 3983.87 3795.16 2428 2423.45 3558.14 2321.12 2951.94 4362.21 2941.31 2315.01
threshold=0.73875000000000013 42.500000000000007 0.050020215740657063 -0.020702317533351808 -1.0000000180025095e-35 -36.999999999999993 -0.012484231702104484 1.0000000180025095e-35 -0.0022189805707957932 -0.041733921569012448 -0.39801219452508269 0.63564042548647948 571.50000000000011 0.020689903292264621 -0.025128887236163352 0.80469560298153919 0.0041855759288492288 5.5000000000000009 -0.0019922316132812029 1.0000000180025095e-35 -0.060444712357880681 0.13966707444486767 -0.01830352587305584 0.045638923268481575 -1.0000000180025095e-35 0.0087577093829393129 0.0033421135275374168 -0.0031907895784906129 -0.068491986925548518 1.0000000180025095e-35
decision_type=10 10 10 8 10 10 10 10 8 8 8 10 10 10 10 10 10 10 8 10 10 10 10 10 10 10 10 10 10 10
left_child=7 2 3 4 14 6 -6 -1 25 -10 -3 -12 15 16 -2 -13 17 18 -11 20 -20 -21 -7 24 -4 26 -5 -28 -29 -27
right_child=1 10 23 8 5 22 -8 -9 9 13 11 12 -14 -15 -16 -17 -18 -19 19 21 -22 -23 -24 -25 -26 29 27 28 -30 -31
leaf_value=-0.050109793158613337 0.047136923381017368 0.052581676683183351 0.010539747906530809 -0.0079019399192539405 0.058787558223338698 -0.019765283395162616 0.0029616521100985591 -0.0088797231692348648 -0.0080798502180903335 0.10642231378916385 0.0061296431254154998 -0.0063903206920196721 -0.062403641427344128 0.052358682446009129 0.007226090050376382 0.064280452870303831 -0.0021144256469760379 0.0061214425805516722 0.083042353870914506 0.015154932431085242 -0.022266073601954758 0.077859054360982713 0.0049965787908031094 -0.031062773623292707 0.082907089441029286 0.01044658740003352 0.005469930975417093 0.035988740763921161 0.16793075188546774 -0.026485865940450916
leaf_weight=7802.172478184104 14833.118559032679 5516.5741419494152 4412.3214910775423 189568.95588117838 8586.9453446120024 17975.275514945388 8823.3872340321541 320458.21883554757 153951.87652550638 2398.87541423738 379423.00597624481 2561.0739133507013 1070.3372002989054 4890.20214381814 11261.94645152986 8068.4455099701881 115967.66959896684 141534.28619003296 1517.4827034026384 11568.308430671692 8751.8972005397081 4966.8185112178326 68889.17087765038 1505.0724879950285 5488.2246583253145 7332.505767300725 25468.702055901289 1550.0122217983007 1001.0801842659712 36646.247382044792
leaf_count=82747 72458 22663 19802 993123 37545 89339 41070 1899563 801478 11816 1873982 11212 9209 23599 57669 34035 596648 733165 7811 59703 44236 24948 348993 7518 22819 37992 132974 8011 4885 190902
internal_value=-4.89512e-05 0.00253668 0.000127489 -0.000413789 0.00997492 0.00498549 0.0304955 -0.00985969 -0.00232914 0.000856908 0.00769284 0.0070597 0.0372213 0.00557519 0.0299125 0.0472531 0.00477723 0.00945814 0.0256295 0.0183989 -0.00670489 0.03399 -0.000127512 0.0398721 0.0506555 -0.00775617 -0.00521514 0.0129625 0.0877644 -0.0203282
internal_weight=1.57379e+06 1.24553e+06 848890 837485 130370 104275 17410.3 328260 707115 445547 396639 391123 11699.9 291596 26095.1 10629.5 286705 170738 29203.4 26804.5 10269.4 16535.1 86864.4 11405.6 9900.55 261568 217589 28019.8 2551.09 43978.8
internal_count=8301915 6319605 4368504 4318365 647074 516947 78615 1982310 3671291 2303404 1951101 1928438 54456 1501926 130127 45247 1478327 881679 148514 136698 52047 84651 438332 50139 42621 1367887 1138993 145870 12896 228894
is_linear=0
shrinkage=0.06


Tree=20
num_leaves=31
num_cat=0
split_feature=17 17 13 11 23 26 10 11 23 1 9 3 26 26 17 0 5 11 23 0 10 19 1 19 2 3 26 14 3 2
split_gain=10324.1 4334.91 3466.59 3187.21 5051.79 2548.72 2276.4 2247.17 2651.89 1800.48 1799.97 1857.51 2423.38 2928.04 1790.75 1781.48 1763.13 1778.04 2475.36 1695.34 2061.75 1542.84 1509.06 1506.37 1911.08 1895.26 3432.08 2636.62 2459.69 1911.21
threshold=1.7797500000000002 0.24041050000000003 -0.28433372534502005 0.023472901149120963 -0.018044207400046041 50.500000000000007 -0.069413044658057935 0.0057443286924349522 -0.0034162687088933048 0.80469560298153919 0.026966041275158486 0.0013924329932756537 86.500000000000014 210.00000000000003 1.0000000180025095e-35 inf -0.10502861232557301 -1.0000000180025095e-35 -0.041719978643247481 1.0000000180025095e-35 0.061600113225738905 -0.40462983184572671 0.15947548880854098 0.10688892969484946 0.22727198268469803 -0.0012536898105206899 -30.499999999999996 -0.018095230619122878 0.0051641943216463168 0.15275504092827416
decision_type=10 10 8 10 10 10 8 10 10 10 10 10 10 10 10 8 10 10 10 10 10 8 10 10 10 10 10 8 10 10
left_child=1 14 -3 4 5 16 -2 -6 -9 -5 21 -12 -13 -14 15 -1 -4 18 -18 -11 -21 -8 -7 24 -23 27 -27 -25 -28 -29
right_child=6 2 3 9 7 22 10 8 -10 19 11 12 13 -15 -16 -17 17 -19 -20 20 -22 23 -24 25 -26 26 28 29 -30 -31
leaf_value=-0.059468881448001915 0.047578262100445752 0.002929591778857322 0.050057633683245006 1.5470523553237188e-05 -0.029314570191676534 0.0048606173638470153 0.041270606663501193 -0.0049732639686817038 -0.023034375259339546 -0.045777255928827906 0.097800579832986428 0.0035864626176834204 0.05641853081460145 -0.026336654403144085 -0.017158165271437344 0.033223470957320346 -0.0022327127227918446 0.0034933486436071071 -0.01725148913251252 0.10941022127150241 0.01076392506146426 0.001771219418195353 0.035128531880884245 0.027502673528774155 0.035336076260518247 0.053213106496511231 0.019713522598352302 0.0048552236631329926 0.0035939027992238923 -0.018034595277147698
leaf_weight=6657.2305559143424 4512.266129553318 214287.30067481101 2011.6447313576937 162565.46934881806 41017.999137893319 23739.655123099685 4025.1425670087337 65688.616192042828 52782.941361173987 648.30157005041838 1049.30375392735 18328.477241098881 7975.5146333575249 1907.254897415638 40562.558518052101 840.70745521783829 81653.988703042269 49872.87017481029 76538.798738524318 1556.1275768280029 1496.0251887142658 485677.68811891973 7904.2460517436266 10144.525988265872 6184.5421005189419 6906.3303901106119 56017.857238024473 27949.143066421151 87009.296916648746 24769.991885781288
leaf_count=74019 18936 1181832 9099 845863 257320 123859 17302 382254 318557 2916 4410 85742 34360 12815 263351 8728 428046 279517 450437 6605 6316 2395160 39754 46020 29353 30320 271543 137221 419632 120628
internal_value=-4.86361e-05 -0.00464755 -0.00357231 -0.00602752 -0.00892219 -0.00345333 0.00509145 -0.0172107 -0.0130201 0.000957483 0.00483166 0.019415 0.0164995 0.0404478 -0.0221376 -0.0490757 -0.0058445 -0.00638498 -0.00949928 0.0423413 0.0610583 0.00422953 0.0124212 0.00401795 0.00219325 0.00823556 0.0119021 -0.00050929 0.0099073 -0.00589952
internal_weight=1.57228e+06 829824 781764 567477 401211 241721 742457 159490 118472 166266 737945 29260.6 28211.2 9882.77 48060.5 7497.94 210077 208066 158193 3700.45 3052.15 708685 31643.9 704659 491862 212797 149933 62863.7 143027 52719.1
internal_count=8301915 4678473 4332375 3150543 2288843 1330712 3623442 958131 700811 861700 3604506 137327 132917 47175 346098 82747 1167099 1158000 878483 15837 12921 3467179 163613 3449877 2424513 1025364 721495 303869 691175 257849
is_linear=0
shrinkage=0.06


Tree=21
num_leaves=31
num_cat=0
split_feature=17 17 6 11 23 11 23 25 1 10 21 11 9 27 26 26 14 1 10 14 10 23 0 27 23 19 19 10 1 2
split_gain=9133.92 3972.09 3397.49 3636.66 5174.28 2240.51 3315.93 2219.54 2098.85 2038.16 2221.93 1993.18 1938.73 2146.66 2091.68 1959.63 1749.21 1931.25 1673.05 1872.12 1670.09 1638.5 1610.3 1948.76 1597.11 1572.37 1522.45 1501.84 1495.28 1828.85
threshold=1.7797500000000002 0.17633250000000003 -0.33724971508513102 0.024201476041141378 -0.025385497792361125 0.0072145529780365076 -0.0027700831024931177 -0.10196773725163073 -0.39801219452508269 -0.023274880197349451 -1.0000000180025095e-35 -0.0065135050424962523 1.0000000180025095e-35 0.42009324722778674 -44.499999999999993 571.50000000000011 0.026032209029899802 -0.068491986925548518 0.048262030121066439 0.0077418080305252379 -0.069413044658057935 0.085883862961674731 1.0000000180025095e-35 -0.076780962304629288 -0.049212233135293118 0.21101728565224784 0.002730294174920695 0.01597397788792396 0.52188171349188683 0.070287424670084683
decision_type=10 10 8 10 10 10 10 8 10 8 10 10 10 10 10 10 10 10 10 10 10 10 10 10 10 10 10 10 10 10
left_child=1 -1 8 4 7 -6 -7 26 -3 10 -2 24 18 14 21 -15 17 -10 19 -11 -12 -14 23 -21 -9 -25 -4 -18 -5 -30
right_child=9 2 3 28 5 6 -8 11 16 12 20 -13 13 15 -16 -17 27 -19 -20 22 -22 -23 -24 25 -26 -27 -28 -29 29 -31
leaf_value=-0.027136453634963434 0.038737927772459296 0.050321897059768111 0.00040121785749933526 -0.00013261246519463886 -0.022228629193543091 -0.0023478569794314944 -0.021215930314924001 -8.7810261397519381e-05 -0.0048024735650445561 0.0020067867860833377 0.044970796695527004 0.0062322618686540803 0.050440979452290056 0.031393227107845943 0.0049029148568743757 -0.059178891446181346 0.059847948025692113 0.0075658900369521033 0.045155230413879185 0.068552629525595515 0.0068792288982612304 -0.050386114982165962 -0.014740842391068544 -0.008584744132164434 -0.013784094694355915 0.080650077710962845 0.047768852307524881 0.012409236968757146 -0.042754402950942925 0.032045386147552091
leaf_weight=26732.877894684672 11420.474734708667 3334.5619675964117 4495.396756708622 168469.64555504918 92213.140535846353 81055.50308328867 57190.323971822858 57450.626935258508 101320.43274430931 210715.11866645515 4488.2003851979971 56307.885524511337 5581.036244109273 16898.496317848563 377345.01799969375 906.09242408722639 3051.2896665036678 82416.747825309634 2904.0492899864912 1774.7732155770063 53979.608710095286 647.54310275614262 48175.825625106692 7836.7532137036324 65702.331526711583 781.77964928746223 5349.7973059862852 11298.66364108026 1342.3499515652657 9538.1415122002363
leaf_count=213583 51526 15021 22666 877455 573025 467618 348157 297072 567589 1042094 18936 311043 24253 74996 1841034 8643 16748 459281 12201 8467 255843 2949 240030 38991 373247 3479 24652 60620 6692 44004
internal_value=-4.7776e-05 -0.00438522 -0.00362547 -0.00589188 -0.00894747 -0.014985 -0.0101533 -0.00159746 0.0031158 0.00477866 0.0145315 -0.00311916 0.00376672 0.00641752 0.00547216 0.0267839 0.00232114 0.000745453 -0.000142253 -0.000630755 0.00980328 0.0399587 -0.0101199 0.0112995 -0.0073948 -0.000490331 0.0261404 0.0224963 0.00125966 0.0228172
internal_weight=1.57072e+06 827270 800537 599115 419765 230459 138246 189306 201422 743455 69888.3 179461 673566 401378 383574 17804.6 198087 183737 272188 269284 58467.8 6228.58 58569.1 10393.3 123153 8618.53 9845.19 14350 179350 10880.5
internal_count=8301915 4678473 4464890 3345631 2417480 1388800 815775 1028680 1119259 3623442 326305 981362 3297137 1951875 1868236 83639 1104238 1026870 1345262 1333061 274779 27202 290967 50937 670319 42470 47318 77368 928151 50696
is_linear=0
shrinkage=0.06


Tree=22
num_leaves=31
num_cat=0
split_feature=17 17 24 11 23 23 11 23 1 15 11 23 1 0 10 23 11 10 21 9 14 26 27 26 10 19 10 27 1 0
split_gain=8096.71 3756.39 3233.14 3099.6 6445.22 2246.66 2862.57 1916.3 1840.88 2179.44 1838.18 2183.86 1783.34 1853.45 1743.64 1741.67 1857.87 1492.9 2159.7 1635.99 2332.09 1961.25 2257.28 1838.18 1491.79 2691.15 1489.91 2117.2 1435.16 1429.61
threshold=1.8367170000000004 0.096350000000000005 -0.26732371656146642 0.019534579759218053 -0.016488889955320166 -0.060065050051237863 -0.0044798407167745422 -0.033135684628305163 0.37142520908882448 -0.1001337130156926 0.005105318097325934 -0.0040160642570280219 0.80469560298153919 1.0000000180025095e-35 0.061600113225738905 -0.0018429695694689096 0.048144800245471811 -0.023274880197349451 -1.0000000180025095e-35 -0.0020420427258757748 0.0087577093829393129 -30.499999999999996 -0.064566290046144489 -20.499999999999996 0.038426204361591228 0.054769022155307441 0.054233320797771593 -0.061081163014124348 0.02711756159813504 1.0000000180025095e-35
decision_type=10 10 8 10 10 8 10 10 10 8 10 10 10 10 10 10 10 8 10 10 10 10 10 10 10 10 10 10 10 10
left_child=1 -1 -3 4 5 -4 7 -7 17 -10 -6 -12 15 -14 -15 -5 -17 18 -2 20 -19 22 -21 -23 -25 26 -26 -28 -24 -22
right_child=8 2 3 12 10 6 -8 -9 9 -11 11 -13 13 14 -16 16 -18 19 -20 21 29 23 28 24 25 -27 27 -29 -30 -31
leaf_value=-0.03854615136373872 0.036329636813248405 0.0025732218043306018 0.0081126194932642139 0.0089442482869496916 -0.031124545509859564 -0.0065736399157205472 0.0016455037866483549 -0.021976034178221544 0.066404401802406698 0.012317952173596202 -0.0076477271717850315 -0.02568146558551173 -0.044389664384217979 0.10378638142429146 0.010146655921795006 -0.0085337831833133954 0.0061228053243226376 0.0014518428370402727 0.0073663794844728604 -0.029315029728439232 0.010539162374941818 -0.040997644376127497 0.0020390525970458064 0.0041430817766564335 0.062272107847664654 -0.0084557808937027468 0.084144176105027502 -0.024835813948061992 0.07395722727328545 -0.020553537905626047
leaf_weight=11207.515796758235 11219.518300443888 224696.89945751429 48865.430543228984 51826.431464150548 36229.036292001605 82428.36590847373 97692.669340327382 44930.491418763995 2824.121236294508 53322.068651422858 56775.169904157519 42100.578684300184 718.35448244959116 1651.97033187747 1263.3472218289971 98166.370293945074 45597.023583874106 169847.79532845318 53293.352128893137 1437.8471047133207 6442.3916501402855 3170.4875378161669 1342.6547638475895 373219.54693929851 5810.2890617847443 5655.601242184639 942.47453820705414 2011.3188607394695 3901.6798039078712 30653.890480786562
leaf_count=114201 50118 1248360 246560 275327 236045 450438 553952 272959 12242 245932 336679 265274 3300 7150 5353 533706 226114 841779 251487 7198 31638 15939 6561 1826753 24518 27747 4105 9754 16396 154330
internal_value=-4.69967e-05 -0.00404136 -0.00357709 -0.00584913 -0.00883837 -0.00354877 -0.00608081 -0.0120074 0.00460321 0.0150385 -0.0195627 -0.0153264 0.000288033 0.0419364 0.0632078 -0.000485712 -0.0038852 0.00372736 0.0124034 0.00280134 -0.00152484 0.00505366 0.0372849 0.00450256 0.0048747 0.023811 0.0446333 0.00993671 0.0555447 -0.0151538
internal_weight=1.56924e+06 844150 832942 608245 409022 273917 225052 127359 725095 56146.2 135105 98875.7 199223 3633.67 2915.32 195590 143763 668949 64512.9 604436 206944 397492 6682.18 390810 387639 14419.7 8764.08 2953.79 5244.33 37096.3
internal_count=8301915 4775418 4661217 3412857 2361907 1523909 1277349 723397 3526497 258174 837998 601953 1050950 15803 12503 1035147 759820 3268323 301605 2966718 1027747 1938971 30155 1908816 1892877 66124 38377 13859 22957 185968
is_linear=0
shrinkage=0.06


Tree=23
num_leaves=31
num_cat=0
split_feature=17 26 14 14 10 21 26 26 3 9 20 0 27 14 20 26 9 26 27 17 9 20 9 1 2 2 0 27 26 3
split_gain=7321.01 3729.62 4194.68 3901.08 3559.64 3105.74 3096.54 3000.84 3228.95 2826.41 5060.38 2885.8 3254.85 4534.82 3233.1 3571.9 4199.29 3024.12 2864.29 2770.76 2665.36 3284.67 7223.37 4865.6 3208.9 2798.71 2921.06 5333.35 3247.48 2724.71
threshold=0.66342200000000007 42.500000000000007 0.04672707615890815 -0.020702317533351808 0.036998433448607683 -1.0000000180025095e-35 -1.4999999999999998 -36.999999999999993 -0.012484231702104484 -0.0022189805707957932 -0.041733921569012448 1.5000000000000002 -0.15158275943514563 0.038024182943001146 0.049351456924774023 12.500000000000002 0.008285749638689395 -25.999999999999996 -0.034909943077989551 1.0000000180025095e-35 -0.00039393549716167201 0.18225562264023251 0.0027923094313959131 0.068925505886170982 -0.0056988509465492826 -0.019328894753134266 2.5000000000000004 -0.10485550668765066 36.500000000000007 0.013779583279065819
decision_type=10 10 10 8 10 10 10 10 10 8 8 10 10 10 10 10 10 10 8 10 10 10 10 10 8 10 10 10 10 10
left_child=19 2 3 5 -4 -2 -6 8 -7 -5 -11 14 -13 17 15 16 -12 -14 -17 -1 -19 24 23 -23 25 26 27 -22 -28 -24
right_child=1 -3 4 9 6 7 -8 -9 -10 10 11 12 13 -15 -16 18 -18 20 -20 -21 21 22 29 -25 -26 -27 28 -29 -30 -31
leaf_value=-0.046648445792120442 0.0263291625762655 0.0065923312196818238 -0.026195672849175917 -0.0074577417990051497 -0.0050748381749848928 0.05230504091695172 0.066849170002988748 -0.00054113879052867316 0.0012415053225539212 -0.0084573151569565606 0.050576892162487889 -0.022475495870535888 0.054236284889689804 0.082913018057044693 -0.012995804483616397 -0.026500344910589994 -0.021991298554553229 -0.010589743694512951 0.0076370858243612737 -0.0079621180623908501 0.1634129818681182 0.023026725126529406 0.0029534455711240286 0.17519494903343119 0.0019151821271036547 0.060534777320721461 0.0018905255308636418 0.028096207344240367 0.087522881746193923 0.11942034237564454
leaf_weight=6834.1658763661981 27818.849680095911 408113.36109355837 2965.2557720243931 271694.24146227539 2930.0509133338928 8777.9277777373791 8145.7600770890713 91071.360652819276 9058.5874797999859 157861.93348501623 11332.216534614563 10857.538930147886 5408.3837261945009 3133.0799242705107 56101.876427054405 12050.147671744227 3844.6058357357979 22444.501233235002 33299.859004259109 268930.71008677781 1172.0792290270329 1207.5679213255644 8005.5248818099499 2025.0248285979033 85073.176716789603 5764.35199393332 29425.337074354291 9951.0655224919319 1685.6422028243542 794.93704807758331
leaf_count=82747 137175 2009665 14981 1436236 13163 38420 34367 460752 42038 830470 57417 57147 24606 14852 289613 62736 20240 117103 172423 1634354 6113 6324 40044 9856 442047 29969 152845 52060 8673 3479
internal_value=-4.60694e-05 0.00184815 -0.000342328 -0.000867467 0.0321906 0.00843684 0.047822 0.00386651 0.0263715 -0.00260269 0.00025596 0.00478692 0.00940745 0.0113733 -0.00261949 0.00699824 0.0321939 0.0100774 -0.00143372 -0.00892087 0.00865197 0.0116282 0.0416483 0.118351 0.00891367 0.0213179 0.0159653 0.0423549 0.00653022 0.0134738
internal_weight=1.56778e+06 1.29201e+06 883901 869860 14041.1 136727 11075.8 108908 17836.5 733133 461439 303577 186948 176091 116629 60526.8 15176.8 172958 45350 275765 167549 145105 12033.1 3232.59 133072 47998.5 42234.1 11123.1 31111 8800.46
internal_count=8301915 6584814 4575149 4512638 62511 678385 47530 541210 80458 3834253 2398017 1567547 965118 907971 602429 312816 77657 893119 235159 1717101 868513 751410 59703 16180 691707 249660 219691 58173 161518 43523
is_linear=0
shrinkage=0.06


Tree=24
num_leaves=31
num_cat=0
split_feature=17 13 11 23 11 26 23 11 27 27 14 10 1 0 10 23 11 27 1 2 2 20 14 1 23 26 23 9 26 26
split_gain=6714.72 3545.6 3541.85 6863.15 2588.06 2435.01 1843.11 2452.42 1699.4 2560.43 3877.02 1618.91 1615.94 1588.78 1976.64 1565.03 2052.27 1560.66 1449.67 2058.88 1933.51 2487.81 1829.77 1911.39 1372.08 1338.06 1310.09 1246.77 1538.53 2476.12
threshold=1.9789205000000003 -0.25210740832883077 0.019197548942939537 -0.01350314664586548 0.0035608462861201062 50.500000000000007 -0.049907799873673032 -1.0000000180025095e-35 0.19441431793467959 0.23969937714321199 -0.0029662294296536329 -0.069413044658057935 0.80469560298153919 1.0000000180025095e-35 0.061600113225738905 0.00086315141974657988 0.048144800245471811 -0.33673240437030022 -0.068491986925548518 -0.33026717947579876 -0.096380338311105859 -0.19818202798148657 0.032457959879475647 -0.39801219452508269 -0.0012153129929439574 13.500000000000002 -0.026486466926502757 0.026966041275158486 86.500000000000014 210.00000000000003
decision_type=10 8 10 8 10 10 10 10 10 10 10 8 10 10 10 10 10 10 10 10 10 10 10 8 10 10 10 10 10 10
left_child=1 18 3 5 17 6 -3 26 -7 10 -10 -2 15 -14 -15 -4 -17 -5 22 -20 21 25 23 -1 -6 -21 -8 -13 -29 -30
right_child=11 2 12 4 24 8 7 -9 9 -11 -12 27 13 14 -16 16 -18 -19 19 20 -22 -23 -24 -25 -26 -27 -28 28 29 -31
leaf_value=0.051267426865441584 0.042359947142062246 0.0017380374485491509 0.0067951163193077264 0.038446060965178899 -0.012658284000838158 0.0034075907587818822 -0.01103488372769958 -0.00078387224002691004 0.14582833036182286 0.010668101407023236 -0.010021672553572222 0.0036829657755787872 -0.040430200611772237 0.098591245545112879 0.0086412437570893893 -0.0094789623622720618 0.005456405180368047 -0.043933756040086661 0.069380343732195593 0.14143725127380738 0.0094861009374283597 -0.010305948953485786 0.035376829961678187 -0.004962297922724312 -0.028828632957680927 0.030154595873575257 -0.025219301410529648 0.0066155453565558036 0.052346892550247985 -0.026029242177083294
leaf_weight=2216.7274035811424 4028.0306277126074 67514.915344804525 69096.92903009057 862.16809371113777 62397.69233250618 31523.119471415877 75783.057062625885 65972.929868787527 1493.6406148970127 4960.1064612865448 933.92298616468906 649584.21228355169 789.61116077750921 1764.1102643311024 1753.8590385988355 93371.648215606809 51328.585378929973 20820.56361348927 1833.4515333026648 480.16976009309292 108518.53095306456 35596.273905947804 4416.8620517104864 119335.34862603247 27092.705135658383 2048.1127857863903 33939.472223550081 17959.768107905984 7337.7417498677969 1808.8537244647741
leaf_count=10107 17308 346829 367517 9338 384397 165658 437462 378433 7438 24990 4980 3155696 3691 7773 7502 508536 253493 169304 8759 2057 602923 202703 21665 672111 175445 10824 217765 83005 31736 12470
internal_value=-4.62991e-05 -0.00348977 -0.00603298 -0.00943375 -0.0220599 -0.00445826 -0.00668786 -0.00992571 0.00947779 0.0353793 0.0858703 0.00443482 9.94114e-05 0.0364839 0.0537473 -0.000633662 -0.00418104 -0.0406581 0.0021759 0.00619252 0.00540249 -0.00622117 -0.00255839 -0.00393684 -0.0175538 0.0512893 -0.0154224 0.00420907 0.0168167 0.036847
internal_weight=1.56656e+06 885845 611399 393294 111173 282121 243210 175695 38910.8 7387.67 2427.56 680719 218105 4307.58 3517.97 213797 144700 21682.7 274445 148477 146643 38124.6 125969 121552 89490.4 2528.28 109723 676691 27106.4 9146.6
internal_count=8301915 5001700 3470551 2322039 738484 1583555 1380489 1033660 203066 37408 12418 3300215 1148512 18966 15275 1129546 762029 178642 1531149 827266 818507 215584 703883 682218 559842 12881 655227 3282907 127211 44206
is_linear=0
shrinkage=0.06


Tree=25
num_leaves=31
num_cat=0
split_feature=17 8 11 23 11 25 23 26 1 1 19 11 23 14 14 19 10 9 27 26 9 27 23 10 19 19 0 14 14 2
split_gain=5946.81 3455.17 3403.94 5751.25 3449.39 2592.85 2091.6 2059.32 2148.57 2067.07 2211.41 1771.21 2051.46 1639.46 1550.07 1461.62 1436.85 2550.77 1432.87 1448.82 1425.87 1375.53 1804.31 1370.21 5555.1 1715.66 1573.17 1292.66 1948.85 1290.91
threshold=2.0892110000000002 -0.18376108929427168 0.02568773019579285 -0.017721735870616078 0.0087584402837133681 -0.11661785004273613 0.0011507479861909656 26.500000000000004 -0.11981393051569861 -0.24679536539595778 -0.04938704363201158 0.0020555236329434213 -0.038167763173926852 0.0238149991857033 -0.020113040102596159 0.002730294174920695 -0.016281179400840017 -0.0039156610993948673 0.42009324722778674 571.50000000000011 -0.030008577447979485 -0.33673240437030022 -0.0040160642570280219 -0.017027752499146866 -0.027031827599792928 0.094456480465409956 2.5000000000000004 0.011642140546635645 -0.021651035828660164 -0.038892625826742605
decision_type=10 8 10 8 10 8 10 10 10 10 10 10 10 10 10 10 10 10 10 10 10 10 8 10 10 10 10 10 8 10
left_child=1 7 3 5 21 15 -6 8 -1 -9 13 12 -7 20 16 -3 -10 29 -2 27 -11 -5 -23 24 26 -26 -12 28 -20 -18
right_child=18 2 -4 4 6 11 -8 9 14 10 23 -13 -14 -15 -16 -17 17 -19 19 -21 -22 22 -24 -25 25 -27 -28 -29 -30 -31
leaf_value=-0.010342611946415007 0.0038192953783767916 -0.004324298590932963 0.00063112640211196902 0.041673190927917401 -0.00604392115603972 -0.0016950467168422932 -0.023917966765254865 0.026400253939417567 0.010387917716251567 0.04522816716748778 0.010297750585588168 0.0054550820948513577 -0.016003897800683193 0.024493642217505929 -0.0003660210863680025 0.05294721041251612 0.04625993149088134 -0.018768545598384399 0.052872891568138757 -0.058171897984300981 -0.008197914964675701 -0.02667993764268534 -0.055380085370328062 0.0085354666976158126 -0.011290957972871676 0.066119114774179769 0.19915088593645339 0.03455006966878367 -0.012880283450514141 0.13787314843506263
